{"learner":{"attributes":{"scikit_learn":"{\"_estimator_type\": \"regressor\"}"},"feature_names":[],"feature_types":[],"gradient_booster":{"model":{"cats":{"enc":[],"feature_segments":[],"sorted_idx":[]},"gbtree_model_param":{"num_parallel_tree":"1","num_trees":"500"},"iteration_indptr":[0,1,2,3,4,5,6,7,8,9,10,11,12,13,14,15,16,17,18,19,20,21,22,23,24,25,26,27,28,29,30,31,32,33,34,35,36,37,38,39,40,41,42,43,44,45,46,47,48,49,50,51,52,53,54,55,56,57,58,59,60,61,62,63,64,65,66,67,68,69,70,71,72,73,74,75,76,77,78,79,80,81,82,83,84,85,86,87,88,89,90,91,92,93,94,95,96,97,98,99,100,101,102,103,104,105,106,107,108,109,110,111,112,113,114,115,116,117,118,119,120,121,122,123,124,125,126,127,128,129,130,131,132,133,134,135,136,137,138,139,140,141,142,143,144,145,146,147,148,149,150,151,152,153,154,155,156,157,158,159,160,161,162,163,164,165,166,167,168,169,170,171,172,173,174,175,176,177,178,179,180,181,182,183,184,185,186,187,188,189,190,191,192,193,194,195,196,197,198,199,200,201,202,203,204,205,206,207,208,209,210,211,212,213,214,215,216,217,218,219,220,221,222,223,224,225,226,227,228,229,230,231,232,233,234,235,236,237,238,239,240,241,242,243,244,245,246,247,248,249,250,251,252,253,254,255,256,257,258,259,260,261,262,263,264,265,266,267,268,269,270,271,272,273,274,275,276,277,278,279,280,281,282,283,284,285,286,287,288,289,290,291,292,293,294,295,296,297,298,299,300,301,302,303,304,305,306,307,308,309,310,311,312,313,314,315,316,317,318,319,320,321,322,323,324,325,326,327,328,329,330,331,332,333,334,335,336,337,338,339,340,341,342,343,344,345,346,347,348,349,350,351,352,353,354,355,356,357,358,359,360,361,362,363,364,365,366,367,368,369,370,371,372,373,374,375,376,377,378,379,380,381,382,383,384,385,386,387,388,389,390,391,392,393,394,395,396,397,398,399,400,401,402,403,404,405,406,407,408,409,410,411,412,413,414,415,416,417,418,419,420,421,422,423,424,425,426,427,428,429,430,431,432,433,434,435,436,437,438,439,440,441,442,443,444,445,446,447,448,449,450,451,452,453,454,455,456,457,458,459,460,461,462,463,464,465,466,467,468,469,470,471,472,473,474,475,476,477,478,479,480,481,482,483,484,485,486,487,488,489,490,491,492,493,494,495,496,497,498,499,500],"tree_info":[0,0,0,0,0,0,0,0,0,0,0,0,0,0,0,0,0,0,0,0,0,0,0,0,0,0,0,0,0,0,0,0,0,0,0,0,0,0,0,0,0,0,0,0,0,0,0,0,0,0,0,0,0,0,0,0,0,0,0,0,0,0,0,0,0,0,0,0,0,0,0,0,0,0,0,0,0,0,0,0,0,0,0,0,0,0,0,0,0,0,0,0,0,0,0,0,0,0,0,0,0,0,0,0,0,0,0,0,0,0,0,0,0,0,0,0,0,0,0,0,0,0,0,0,0,0,0,0,0,0,0,0,0,0,0,0,0,0,0,0,0,0,0,0,0,0,0,0,0,0,0,0,0,0,0,0,0,0,0,0,0,0,0,0,0,0,0,0,0,0,0,0,0,0,0,0,0,0,0,0,0,0,0,0,0,0,0,0,0,0,0,0,0,0,0,0,0,0,0,0,0,0,0,0,0,0,0,0,0,0,0,0,0,0,0,0,0,0,0,0,0,0,0,0,0,0,0,0,0,0,0,0,0,0,0,0,0,0,0,0,0,0,0,0,0,0,0,0,0,0,0,0,0,0,0,0,0,0,0,0,0,0,0,0,0,0,0,0,0,0,0,0,0,0,0,0,0,0,0,0,0,0,0,0,0,0,0,0,0,0,0,0,0,0,0,0,0,0,0,0,0,0,0,0,0,0,0,0,0,0,0,0,0,0,0,0,0,0,0,0,0,0,0,0,0,0,0,0,0,0,0,0,0,0,0,0,0,0,0,0,0,0,0,0,0,0,0,0,0,0,0,0,0,0,0,0,0,0,0,0,0,0,0,0,0,0,0,0,0,0,0,0,0,0,0,0,0,0,0,0,0,0,0,0,0,0,0,0,0,0,0,0,0,0,0,0,0,0,0,0,0,0,0,0,0,0,0,0,0,0,0,0,0,0,0,0,0,0,0,0,0,0,0,0,0,0,0,0,0,0,0,0,0,0,0,0,0,0,0,0,0,0,0,0,0,0,0,0,0,0,0,0,0,0,0,0,0,0,0,0,0,0,0,0,0,0,0,0,0,0,0,0,0,0,0,0,0,0,0,0,0,0,0,0,0,0,0,0,0,0,0,0,0,0,0,0,0,0,0,0],"trees":[{"base_weights":[-1.356322E-2,2.0445209E0,-7.1205235E0,2.7419206E-2,5.79996E0,-7.595033E0,-8.239827E-1,5.4217663E0,-2.2845461E0,9.29782E0,4.1269083E0,-7.857161E0,-5.8132925E0,2.7870784E0,-1.142675E0,9.249848E0,5.348025E-1,-3.9741307E-1,-3.9301474E0,5.9832172E0,1.1039376E1,5.4936824E0,2.7731087E0,-4.858286E0,-8.017676E0,-3.216197E-1,-2.8456065E-1,2.3461352E-1,1.1974659E0,-3.2517123E0,-5.7910603E-1,1.096689E0,1.3080395E1,-2.4087344E-1,3.0716994E0,2.8301938E0,-2.4180233E0,-3.351287E0,-6.575387E0,9.726593E0,4.599084E0,1.2924062E1,8.275266E0,3.219133E0,7.0971975E0,4.8561406E0,1.7053044E0,-3.626399E-1,-4.148858E0,-8.8984375E0,-7.883021E0,-1.8315193E-1,1.8134333E0,-4.1842666E0,-4.777067E-1,4.8796973E0,-1.1119343E0,8.413992E-2,-2.1908577E-1,7.241904E-1,5.626986E-1,3.540286E-2,-6.900615E-2,1.8629873E-1,-1.002195E-1,-1.1314892E-1,3.7713453E-1,-7.537055E-2,-2.1974067E-1,-3.1028122E-1,-1.2134647E-1,-3.2090425E-1,-4.9905235E-1,3.39367E-1,4.972057E-1,3.0088505E-1,1.6840565E-1,6.815158E-1,5.9337205E-1,4.7937593E-1,3.3652627E-1,3.390479E-1,8.837355E-2,4.76284E-1,2.714127E-1,2.5940273E-2,4.162081E-1,1.4910989E-1,3.49995E-2,3.467015E-2,-2.1656871E-1,-4.5832196E-1,-3.1229967E-1,-3.1320366E-1,-3.9722955E-1,4.5611672E-2,1.4231639E-1,1.05739705E-1,-2.3495963E-1,2.8155742E-2,-1.4500685E-1,2.986909E-1,9.9003576E-2,5.0906844E-2,-7.285812E-2],"categories":[],"categories_nodes":[],"categories_segments":[],"categories_sizes":[],"default_left":[0,0,0,0,0,0,0,0,0,0,0,0,0,0,0,0,0,0,0,0,0,0,0,0,0,0,0,0,0,0,0,0,0,0,0,0,0,0,0,0,0,0,0,0,0,0,0,0,0,0,0,0,0,0,0,0,0,0,0,0,0,0,0,0,0,0,0,0,0,0,0,0,0,0,0,0,0,0,0,0,0,0,0,0,0,0,0,0,0,0,0,0,0,0,0,0,0,0,0,0,0,0,0,0,0],"id":0,"left_children":[1,3,5,7,9,11,13,15,17,19,21,23,25,27,29,31,33,35,37,39,41,43,45,47,49,-1,-1,-1,51,53,55,57,59,61,63,65,67,69,71,73,75,77,79,81,83,85,87,-1,89,91,93,-1,95,97,99,101,103,-1,-1,-1,-1,-1,-1,-1,-1,-1,-1,-1,-1,-1,-1,-1,-1,-1,-1,-1,-1,-1,-1,-1,-1,-1,-1,-1,-1,-1,-1,-1,-1,-1,-1,-1,-1,-1,-1,-1,-1,-1,-1,-1,-1,-1,-1,-1,-1],"loss_changes":[2.8242778E5,1.1342127E5,1.2947875E4,1.2151049E5,3.0578484E4,1.8360625E3,3.5401965E2,5.467668E4,2.11773E4,9.6994375E3,6.5359883E3,1.6503281E3,1.5566406E0,6.95051E1,3.317271E2,5.1171938E4,2.5296587E3,2.0732877E4,5.5552227E3,2.984912E3,5.6630312E3,6.3989727E3,3.9524873E3,2.7624023E2,3.2335938E2,0E0,0E0,0E0,5.1366386E1,1.5016266E2,6.5366797E2,1.6928491E3,2.6924375E3,1.0658972E3,1.00730884E3,2.93955E4,3.511961E3,7.8756094E3,2.8412695E2,3.120996E1,7.279453E2,3.2596094E2,8.5008203E2,3.7616733E3,4.1294883E3,9.065107E3,1.5110024E3,0E0,1.2886548E2,2.4971875E2,2.3778125E2,0E0,1.0059448E1,1.5291248E2,4.2207893E1,5.0826813E1,1.5154102E2,0E0,0E0,0E0,0E0,0E0,0E0,0E0,0E0,0E0,0E0,0E0,0E0,0E0,0E0,0E0,0E0,0E0,0E0,0E0,0E0,0E0,0E0,0E0,0E0,0E0,0E0,0E0,0E0,0E0,0E0,0E0,0E0,0E0,0E0,0E0,0E0,0E0,0E0,0E0,0E0,0E0,0E0,0E0,0E0,0E0,0E0,0E0,0E0],"parents":[2147483647,0,0,1,1,2,2,3,3,4,4,5,5,6,6,7,7,8,8,9,9,10,10,11,11,12,12,13,13,14,14,15,15,16,16,17,17,18,18,19,19,20,20,21,21,22,22,23,23,24,24,28,28,29,29,30,30,31,31,32,32,33,33,34,34,35,35,36,36,37,37,38,38,39,39,40,40,41,41,42,42,43,43,44,44,45,45,46,46,48,48,49,49,50,50,52,52,53,53,54,54,55,55,56,56],"right_children":[2,4,6,8,10,12,14,16,18,20,22,24,26,28,30,32,34,36,38,40,42,44,46,48,50,-1,-1,-1,52,54,56,58,60,62,64,66,68,70,72,74,76,78,80,82,84,86,88,-1,90,92,94,-1,96,98,100,102,104,-1,-1,-1,-1,-1,-1,-1,-1,-1,-1,-1,-1,-1,-1,-1,-1,-1,-1,-1,-1,-1,-1,-1,-1,-1,-1,-1,-1,-1,-1,-1,-1,-1,-1,-1,-1,-1,-1,-1,-1,-1,-1,-1,-1,-1,-1,-1,-1],"split_conditions":[1.1931908E-1,6E0,6E0,1.2773795E-1,3.379011E-2,6.536416E0,7.0590293E-1,3E0,2.7620065E-1,7E0,6.5625906E-2,1.1982167E0,4.047662E-2,8.933544E-4,7E0,2E0,4.4220686E-4,3E0,5E0,2.5842555E-3,2.7365324E-1,7E0,1.1E1,2E0,1.348828E-1,-3.216197E-1,-2.8456065E-1,2.3461352E-1,9.198189E-4,3.1133473E-2,1.1E1,2.9778088E-2,1.5562892E-2,1.480335E-2,5E0,2E0,5E0,2E0,1.0847003E0,3.3358764E-2,8.069489E-2,1.5614994E-2,4.2120527E-2,5.4744724E-3,2.5402648E-2,9E0,8.183533E-2,-3.626399E-1,6.0091496E-1,3.2671094E-3,1.6915963E0,-1.8315193E-1,5.191416E-1,1.2222749E-1,1.7397848E0,3.2178993E0,1.6474855E0,8.413992E-2,-2.1908577E-1,7.241904E-1,5.626986E-1,3.540286E-2,-6.900615E-2,1.8629873E-1,-1.002195E-1,-1.1314892E-1,3.7713453E-1,-7.537055E-2,-2.1974067E-1,-3.1028122E-1,-1.2134647E-1,-3.2090425E-1,-4.9905235E-1,3.39367E-1,4.972057E-1,3.0088505E-1,1.6840565E-1,6.815158E-1,5.9337205E-1,4.7937593E-1,3.3652627E-1,3.390479E-1,8.837355E-2,4.76284E-1,2.714127E-1,2.5940273E-2,4.162081E-1,1.4910989E-1,3.49995E-2,3.467015E-2,-2.1656871E-1,-4.5832196E-1,-3.1229967E-1,-3.1320366E-1,-3.9722955E-1,4.5611672E-2,1.4231639E-1,1.05739705E-1,-2.3495963E-1,2.8155742E-2,-1.4500685E-1,2.986909E-1,9.9003576E-2,5.0906844E-2,-7.285812E-2],"split_indices":[5,9,9,1,5,0,1,9,1,9,5,1,7,6,9,9,6,9,9,2,0,9,9,9,2,0,0,0,6,7,9,2,5,5,9,9,9,9,0,1,4,2,2,2,2,9,5,0,1,6,0,0,1,5,1,1,0,0,0,0,0,0,0,0,0,0,0,0,0,0,0,0,0,0,0,0,0,0,0,0,0,0,0,0,0,0,0,0,0,0,0,0,0,0,0,0,0,0,0,0,0,0,0,0,0],"split_type":[0,0,0,0,0,0,0,0,0,0,0,0,0,0,0,0,0,0,0,0,0,0,0,0,0,0,0,0,0,0,0,0,0,0,0,0,0,0,0,0,0,0,0,0,0,0,0,0,0,0,0,0,0,0,0,0,0,0,0,0,0,0,0,0,0,0,0,0,0,0,0,0,0,0,0,0,0,0,0,0,0,0,0,0,0,0,0,0,0,0,0,0,0,0,0,0,0,0,0,0,0,0,0,0,0],"sum_hessian":[1.9307E4,1.4972E4,4.335E3,9.741E3,5.231E3,4.031E3,3.04E2,2.922E3,6.819E3,1.691E3,3.54E3,3.511E3,5.2E2,2.4E1,2.8E2,1.638E3,1.284E3,3.177E3,3.642E3,5.84E2,1.107E3,1.76E3,1.78E3,1.8E2,3.331E3,7.7E1,4.43E2,1E1,1.4E1,5.8E1,2.22E2,5.24E2,1.114E3,9.84E2,3E2,1.223E3,1.954E3,2.99E3,6.52E2,1.56E2,4.28E2,6.56E2,4.51E2,7.29E2,1.031E3,6.02E2,1.178E3,3.9E1,1.41E2,4.33E2,2.898E3,1E0,1.3E1,4.3E1,1.5E1,1.9E1,2.03E2,4.74E2,5E1,6.26E2,4.88E2,5.37E2,4.47E2,2.66E2,3.4E1,5.88E2,6.35E2,1.339E3,6.15E2,7.3E2,2.26E3,6.26E2,2.6E1,1.3E1,1.43E2,1.97E2,2.31E2,3.86E2,2.7E2,2.41E2,2.1E2,2.1E2,5.19E2,4.18E2,6.13E2,2.68E2,3.34E2,5.18E2,6.6E2,5E0,1.36E2,3.91E2,4.2E1,1.1E2,2.788E3,8E0,5E0,3E0,4E1,1.1E1,4E0,1.3E1,6E0,2.8E1,1.75E2],"tree_param":{"num_deleted":"0","num_feature":"10","num_nodes":"105","size_leaf_vector":"1"}},{"base_weights":[-1.2632885E-2,2.976038E0,-4.3850293E0,1.0497247E0,5.6103063E0,-6.900304E-1,-6.5823812E0,7.370682E0,-2.2469993E0,9.184474E0,4.144558E0,2.6913097E0,-1.7552443E0,-6.846521E0,-2.3462713E-1,-1.417683E0,1.0263421E1,-1.7624058E-1,-3.7232199E0,6.1905065E0,1.201284E1,2.8552516E0,6.1745963E0,4.27803E0,3.209895E-1,-2.4295654E0,1.838821E0,-5.1994705E0,-7.358614E0,-5.8702874E-1,5.268184E0,1.4070705E0,-4.5985417E0,1.3156765E1,6.987475E0,-1.5709839E0,1.1792969E0,-3.0676613E0,-5.41107E0,4.51281E0,8.197561E0,1.0691349E1,1.3570649E1,4.53716E0,7.6890546E-1,7.5632944E0,4.961145E0,1.1049963E0,9.096866E0,-5.700628E-1,5.176252E0,-1.0670716E0,-4.0460696E0,6.7365413E0,1.1192863E0,-7.209934E-1,-5.5971484E0,-7.6958094E0,-5.6653028E0,1.5854875E0,-1.7859674E0,3.12759E-1,8.526986E-2,1.6442724E-2,2.6116693E-1,-1.7565496E-1,-2.6531363E-1,5.985075E-1,7.2487754E-1,4.2884922E-1,2.4820195E-1,2.9908935E-2,-1.2004769E-1,1.3441512E-1,-1.3393112E-1,-1.23443656E-1,-2.687615E-1,-1.9695735E-1,-3.039215E-1,3.228592E-1,1.7952858E-1,4.9816924E-1,2.7376908E-1,5.890311E-1,4.8273402E-1,4.871299E-1,6.861086E-1,2.1019876E-2,3.471975E-1,6.65517E-2,-4.746508E-2,1.7319483E-1,4.7346148E-1,1.6571078E-1,3.0167314E-1,-1.6288968E-6,1.7840496E-1,5.4842603E-1,3.580526E-1,2.5092202E-1,-3.4323577E-2,3.5355255E-1,1.3797592E-1,-1.6877085E-1,1.0250457E-1,-1.5079896E-1,-2.3198973E-1,3.910358E-1,2.0200722E-1,1.3828921E-1,4.3537035E-3,1.4095507E-2,-2.0888531E-1,-3.070711E-1,-2.0793872E-1,-3.7771362E-1,-4.2879018E-1,-3.1471983E-1,-2.7128085E-1,3.4311615E-2,1.3022108E-1,-1.1216505E-1,1.4911075E-1],"categories":[],"categories_nodes":[],"categories_segments":[],"categories_sizes":[],"default_left":[0,0,0,0,0,0,0,0,0,0,0,0,0,0,0,0,0,0,0,0,0,0,0,0,0,0,0,0,0,0,0,0,0,0,0,0,0,0,0,0,0,0,0,0,0,0,0,0,0,0,0,0,0,0,0,0,0,0,0,0,0,0,0,0,0,0,0,0,0,0,0,0,0,0,0,0,0,0,0,0,0,0,0,0,0,0,0,0,0,0,0,0,0,0,0,0,0,0,0,0,0,0,0,0,0,0,0,0,0,0,0,0,0,0,0,0,0,0,0,0,0,0,0],"id":1,"left_children":[1,3,5,7,9,11,13,15,17,19,21,23,25,27,29,31,33,35,37,39,41,43,45,47,49,51,53,55,57,59,61,63,65,67,69,71,73,75,77,79,81,83,85,87,89,91,93,95,97,99,101,103,105,107,109,111,113,115,117,119,121,-1,-1,-1,-1,-1,-1,-1,-1,-1,-1,-1,-1,-1,-1,-1,-1,-1,-1,-1,-1,-1,-1,-1,-1,-1,-1,-1,-1,-1,-1,-1,-1,-1,-1,-1,-1,-1,-1,-1,-1,-1,-1,-1,-1,-1,-1,-1,-1,-1,-1,-1,-1,-1,-1,-1,-1,-1,-1,-1,-1,-1,-1],"loss_changes":[2.5304216E5,5.8359484E4,6.3828E4,1.3848858E5,2.5410844E4,1.0568856E4,8.263797E3,5.7927766E4,1.335148E4,1.188068E4,9.003449E3,2.6421743E3,5.4114775E3,3.9525E3,3.8658603E2,5.0833945E3,1.6152094E4,3.4409417E3,2.8040898E3,2.2783887E3,1.3449922E3,7.4000605E3,2.2159062E3,6.4261562E3,1.2277523E3,4.133625E3,1.2356747E3,2.0007285E3,2.0151406E3,4.899331E2,3.0733826E1,1.2321555E3,1.8481787E2,1.2700312E3,2.5483867E3,1.6165212E3,5.380558E3,2.5269746E3,6.744551E2,6.518379E2,1.4436523E3,3.3241406E2,5.480078E1,1.15691E4,9.1210114E2,4.825711E3,1.2453145E3,6.944159E2,5.2471094E2,1.591439E2,1.8098987E2,7.353646E3,5.1059668E2,9.876843E1,5.2463025E2,3.23975E2,7.8291406E2,3.0801562E2,5.559961E1,5.9274582E1,2.7047476E2,0E0,0E0,0E0,0E0,0E0,0E0,0E0,0E0,0E0,0E0,0E0,0E0,0E0,0E0,0E0,0E0,0E0,0E0,0E0,0E0,0E0,0E0,0E0,0E0,0E0,0E0,0E0,0E0,0E0,0E0,0E0,0E0,0E0,0E0,0E0,0E0,0E0,0E0,0E0,0E0,0E0,0E0,0E0,0E0,0E0,0E0,0E0,0E0,0E0,0E0,0E0,0E0,0E0,0E0,0E0,0E0,0E0,0E0,0E0,0E0,0E0,0E0],"parents":[2147483647,0,0,1,1,2,2,3,3,4,4,5,5,6,6,7,7,8,8,9,9,10,10,11,11,12,12,13,13,14,14,15,15,16,16,17,17,18,18,19,19,20,20,21,21,22,22,23,23,24,24,25,25,26,26,27,27,28,28,29,29,30,30,31,31,32,32,33,33,34,34,35,35,36,36,37,37,38,38,39,39,40,40,41,41,42,42,43,43,44,44,45,45,46,46,47,47,48,48,49,49,50,50,51,51,52,52,53,53,54,54,55,55,56,56,57,57,58,58,59,59,60,60],"right_children":[2,4,6,8,10,12,14,16,18,20,22,24,26,28,30,32,34,36,38,40,42,44,46,48,50,52,54,56,58,60,62,64,66,68,70,72,74,76,78,80,82,84,86,88,90,92,94,96,98,100,102,104,106,108,110,112,114,116,118,120,122,-1,-1,-1,-1,-1,-1,-1,-1,-1,-1,-1,-1,-1,-1,-1,-1,-1,-1,-1,-1,-1,-1,-1,-1,-1,-1,-1,-1,-1,-1,-1,-1,-1,-1,-1,-1,-1,-1,-1,-1,-1,-1,-1,-1,-1,-1,-1,-1,-1,-1,-1,-1,-1,-1,-1,-1,-1,-1,-1,-1,-1,-1],"split_conditions":[1.1196704E-1,6E0,1.6091526E-2,3E0,2.8687146E-1,1.3799213E-1,6E0,2E0,2.0509404E-1,7E0,1.5E1,3E0,6E0,1.460231E0,2.8598309E-3,2.3123072E-1,1.4806679E-1,4E0,6.13732E-1,2E1,2E1,1.1E1,1.1E1,2E0,6E0,3E0,3.960627E-3,2.3123072E-1,6.421314E0,6.894268E-1,1.4271212E-1,2.5E1,3.3262908E-1,2E1,2.822457E-1,6.9244474E-2,5E0,5E0,5.369935E-2,2.5842555E-3,5.2953446E-3,1.5614994E-2,2.9462576E-4,7E0,2.0938385E0,7E0,2E1,2.5E1,3.298521E-4,4.0475443E-2,1.0052748E-3,2E0,5E0,1.0035217E-2,1.0208666E-2,2.9778088E-2,8.271087E-2,3E0,6.685659E0,2.2066772E-2,1.5E1,3.12759E-1,8.526986E-2,1.6442724E-2,2.6116693E-1,-1.7565496E-1,-2.6531363E-1,5.985075E-1,7.2487754E-1,4.2884922E-1,2.4820195E-1,2.9908935E-2,-1.2004769E-1,1.3441512E-1,-1.3393112E-1,-1.23443656E-1,-2.687615E-1,-1.9695735E-1,-3.039215E-1,3.228592E-1,1.7952858E-1,4.9816924E-1,2.7376908E-1,5.890311E-1,4.8273402E-1,4.871299E-1,6.861086E-1,2.1019876E-2,3.471975E-1,6.65517E-2,-4.746508E-2,1.7319483E-1,4.7346148E-1,1.6571078E-1,3.0167314E-1,-1.6288968E-6,1.7840496E-1,5.4842603E-1,3.580526E-1,2.5092202E-1,-3.4323577E-2,3.5355255E-1,1.3797592E-1,-1.6877085E-1,1.0250457E-1,-1.5079896E-1,-2.3198973E-1,3.910358E-1,2.0200722E-1,1.3828921E-1,4.3537035E-3,1.4095507E-2,-2.0888531E-1,-3.070711E-1,-2.0793872E-1,-3.7771362E-1,-4.2879018E-1,-3.1471983E-1,-2.7128085E-1,3.4311615E-2,1.3022108E-1,-1.1216505E-1,1.4911075E-1],"split_indices":[4,9,7,9,0,0,9,9,0,9,8,9,9,0,6,0,0,9,0,8,8,9,9,9,9,9,2,0,0,0,4,8,0,8,0,0,9,9,4,2,2,2,6,9,0,9,8,8,6,0,2,9,9,7,7,2,2,9,0,7,8,0,0,0,0,0,0,0,0,0,0,0,0,0,0,0,0,0,0,0,0,0,0,0,0,0,0,0,0,0,0,0,0,0,0,0,0,0,0,0,0,0,0,0,0,0,0,0,0,0,0,0,0,0,0,0,0,0,0,0,0,0,0],"split_type":[0,0,0,0,0,0,0,0,0,0,0,0,0,0,0,0,0,0,0,0,0,0,0,0,0,0,0,0,0,0,0,0,0,0,0,0,0,0,0,0,0,0,0,0,0,0,0,0,0,0,0,0,0,0,0,0,0,0,0,0,0,0,0,0,0,0,0,0,0,0,0,0,0,0,0,0,0,0,0,0,0,0,0,0,0,0,0,0,0,0,0,0,0,0,0,0,0,0,0,0,0,0,0,0,0,0,0,0,0,0,0,0,0,0,0,0,0,0,0,0,0,0,0],"sum_hessian":[1.9362E4,1.1501E4,7.861E3,6.644E3,4.857E3,2.932E3,4.929E3,2.277E3,4.367E3,1.411E3,3.446E3,7.02E2,2.23E3,4.732E3,1.97E2,5.64E2,1.713E3,1.818E3,2.549E3,6.87E2,7.24E2,2.109E3,1.337E3,4.2E2,2.82E2,1.878E3,3.52E2,1.125E3,3.607E3,1.86E2,1.1E1,2.99E2,2.65E2,9.08E2,8.05E2,8.96E2,9.22E2,1.838E3,7.11E2,3.76E2,3.11E2,3.96E2,3.28E2,1.167E3,9.42E2,6.21E2,7.16E2,2.54E2,1.66E2,2.39E2,4.3E1,1.02E3,8.58E2,4.4E1,3.08E2,9.2E1,1.033E3,3.005E3,6.02E2,6.6E1,1.2E2,8E0,3E0,2.34E2,6.5E1,1.07E2,1.58E2,4.87E2,4.21E2,4.49E2,3.56E2,2.48E2,6.48E2,6.63E2,2.59E2,1.461E3,3.77E2,2.24E2,4.87E2,1.19E2,2.57E2,1.87E2,1.24E2,1.88E2,2.08E2,1.5E1,3.13E2,4.31E2,7.36E2,7.1E2,2.32E2,1.98E2,4.23E2,2.84E2,4.32E2,1.76E2,7.8E1,8.2E1,8.4E1,4E0,2.35E2,2.3E1,2E1,5.86E2,4.34E2,3.16E2,5.42E2,3E1,1.4E1,1.18E2,1.9E2,7.2E1,2E1,7.47E2,2.86E2,2.597E3,4.08E2,1.59E2,4.43E2,3.6E1,3E1,1.1E2,1E1],"tree_param":{"num_deleted":"0","num_feature":"10","num_nodes":"123","size_leaf_vector":"1"}},{"base_weights":[-2.3266159E-2,1.8904978E0,-6.2341075E0,9.7836696E-2,5.3340507E0,-6.836111E0,-2.7639204E-1,4.5430984E0,-2.191832E0,8.351524E0,3.7252166E0,-7.093832E0,-5.3560195E0,8.549451E-1,-1.5618902E0,7.993633E0,1.5821199E-1,-6.099163E-1,-3.611147E0,5.220932E0,1.0023993E1,4.9501524E0,2.447324E0,-5.0407586E0,-7.2886167E0,-2.9831496E-1,-2.57043E-1,2.9783568E0,-2.332041E-1,-3.0260313E0,-9.8713744E-1,7.3870134E-1,1.1515788E1,-3.8954812E-1,2.863376E0,2.5731323E0,-2.5941691E0,-2.064178E0,-4.329546E0,6.2726045E0,2.6381435E0,1.1772489E1,7.548335E0,2.9692905E0,6.34566E0,4.34063E0,1.5473667E0,-7.311776E0,-4.4637594E0,-4.1576168E-1,-7.184134E0,-1.3239423E0,6.6857815E0,1.8705859E0,-7.5804156E-1,-5.525486E0,-2.1184504E0,3.3297608E0,-1.372862E0,6.1440866E-2,-2.0051458E-1,6.52647E-1,4.7832224E-1,1.48396585E-2,-9.6997E-2,1.8152587E-1,-1.0975795E-1,-1.2914656E-1,2.6967096E-1,-8.914173E-2,-2.1049713E-1,-4.08536E-2,-1.6490315E-1,-1.9445622E-1,-3.1087202E-1,3.3561748E-1,2.0968023E-1,2.0142959E-1,9.3629055E-2,3.8848832E-1,5.9640425E-1,4.459493E-1,3.201557E-1,2.6828906E-1,6.745263E-2,4.029471E-1,2.3217478E-1,2.1419028E-2,3.7710994E-1,1.1923027E-1,1.743685E-2,-1.4560835E-1,-3.7049308E-1,-3.3765566E-1,-1.8819912E-1,-2.8724155E-1,-3.6222932E-1,-2.807482E-1,2.692823E-2,4.5208287E-1,2.9659382E-1,1.1962966E-2,1.3346432E-1,2.3910466E-3,-8.408335E-2,-4.081765E-2,-3.1169894E-1,-2.762215E-1,-6.382783E-2,2.4506699E-1,9.594021E-2,-4.8785422E-2,-1.557616E-1],"categories":[],"categories_nodes":[],"categories_segments":[],"categories_sizes":[],"default_left":[0,0,0,0,0,0,0,0,0,0,0,0,0,0,0,0,0,0,0,0,0,0,0,0,0,0,0,0,0,0,0,0,0,0,0,0,0,0,0,0,0,0,0,0,0,0,0,0,0,0,0,0,0,0,0,0,0,0,0,0,0,0,0,0,0,0,0,0,0,0,0,0,0,0,0,0,0,0,0,0,0,0,0,0,0,0,0,0,0,0,0,0,0,0,0,0,0,0,0,0,0,0,0,0,0,0,0,0,0,0,0,0,0],"id":2,"left_children":[1,3,5,7,9,11,13,15,17,19,21,23,25,27,29,31,33,35,37,39,41,43,45,47,49,-1,-1,51,53,55,57,59,61,63,65,67,69,71,73,75,77,79,81,83,85,87,89,91,93,-1,95,97,99,101,103,105,107,109,111,-1,-1,-1,-1,-1,-1,-1,-1,-1,-1,-1,-1,-1,-1,-1,-1,-1,-1,-1,-1,-1,-1,-1,-1,-1,-1,-1,-1,-1,-1,-1,-1,-1,-1,-1,-1,-1,-1,-1,-1,-1,-1,-1,-1,-1,-1,-1,-1,-1,-1,-1,-1,-1,-1],"loss_changes":[2.3035266E5,9.145375E4,1.63700625E4,9.918634E4,2.4590281E4,1.54225E3,6.122254E2,5.0124273E4,1.4438734E4,9.176875E3,5.16841E3,1.3729062E3,4.9498047E1,5.1854095E2,1.6239087E2,4.7365523E4,2.1647627E3,1.9226182E4,3.757871E3,1.6557676E3,4.8785312E3,4.6491406E3,2.756412E3,3.7109082E2,2.8409375E2,0E0,0E0,1.2216221E3,1.6582474E2,1.1229535E2,2.4248969E2,1.4174768E3,3.6124219E3,1.2936189E3,9.627438E2,1.7013316E4,2.4498936E3,1.6541655E3,1.8988281E3,3.702793E2,1.8347156E2,3.232578E2,6.916719E2,2.710109E3,2.8484336E3,6.5341973E3,1.1037915E3,3.7126465E0,3.724375E2,0E0,2.12E2,2.9124573E2,1.7688965E1,3.8158722E1,8.956161E1,4.0915253E1,1.1270154E2,1.652243E1,8.789386E1,0E0,0E0,0E0,0E0,0E0,0E0,0E0,0E0,0E0,0E0,0E0,0E0,0E0,0E0,0E0,0E0,0E0,0E0,0E0,0E0,0E0,0E0,0E0,0E0,0E0,0E0,0E0,0E0,0E0,0E0,0E0,0E0,0E0,0E0,0E0,0E0,0E0,0E0,0E0,0E0,0E0,0E0,0E0,0E0,0E0,0E0,0E0,0E0,0E0,0E0,0E0,0E0,0E0,0E0],"parents":[2147483647,0,0,1,1,2,2,3,3,4,4,5,5,6,6,7,7,8,8,9,9,10,10,11,11,12,12,13,13,14,14,15,15,16,16,17,17,18,18,19,19,20,20,21,21,22,22,23,23,24,24,27,27,28,28,29,29,30,30,31,31,32,32,33,33,34,34,35,35,36,36,37,37,38,38,39,39,40,40,41,41,42,42,43,43,44,44,45,45,46,46,47,47,48,48,50,50,51,51,52,52,53,53,54,54,55,55,56,56,57,57,58,58],"right_children":[2,4,6,8,10,12,14,16,18,20,22,24,26,28,30,32,34,36,38,40,42,44,46,48,50,-1,-1,52,54,56,58,60,62,64,66,68,70,72,74,76,78,80,82,84,86,88,90,92,94,-1,96,98,100,102,104,106,108,110,112,-1,-1,-1,-1,-1,-1,-1,-1,-1,-1,-1,-1,-1,-1,-1,-1,-1,-1,-1,-1,-1,-1,-1,-1,-1,-1,-1,-1,-1,-1,-1,-1,-1,-1,-1,-1,-1,-1,-1,-1,-1,-1,-1,-1,-1,-1,-1,-1,-1,-1,-1,-1,-1,-1],"split_conditions":[1.1205864E-1,6E0,6E0,1.4384751E-1,3.4735918E-2,6.421314E0,1.3005847E-1,3E0,1.2237966E-2,7E0,6.5625906E-2,1.2660073E0,6.685659E0,1.1E1,7E0,2E0,5.540848E-4,3E0,3.284487E-1,2.1212736E-1,2.7365324E-1,7E0,1.1E1,1.3648272E-3,1.9247532E-3,-2.9831496E-1,-2.57043E-1,7E0,1.2816955E0,1.9687891E-2,1.1E1,1.8089011E-1,1.635921E-2,1.943326E-2,5E0,2E0,5E0,9.278348E-2,5E0,4.2188168E-4,8.069489E-2,2.9462576E-4,4.0861636E-1,3.159914E-1,1.1E1,9E0,8.7222576E-2,1.0342002E-2,2E0,-4.1576168E-1,9.958271E-2,1.55034065E-2,1.354174E0,9.084225E-3,3.660703E-2,1.3629311E-1,8.979386E-2,2.8841968E0,1.6373658E-1,6.1440866E-2,-2.0051458E-1,6.52647E-1,4.7832224E-1,1.48396585E-2,-9.6997E-2,1.8152587E-1,-1.0975795E-1,-1.2914656E-1,2.6967096E-1,-8.914173E-2,-2.1049713E-1,-4.08536E-2,-1.6490315E-1,-1.9445622E-1,-3.1087202E-1,3.3561748E-1,2.0968023E-1,2.0142959E-1,9.3629055E-2,3.8848832E-1,5.9640425E-1,4.459493E-1,3.201557E-1,2.6828906E-1,6.745263E-2,4.029471E-1,2.3217478E-1,2.1419028E-2,3.7710994E-1,1.1923027E-1,1.743685E-2,-1.4560835E-1,-3.7049308E-1,-3.3765566E-1,-1.8819912E-1,-2.8724155E-1,-3.6222932E-1,-2.807482E-1,2.692823E-2,4.5208287E-1,2.9659382E-1,1.1962966E-2,1.3346432E-1,2.3910466E-3,-8.408335E-2,-4.081765E-2,-3.1169894E-1,-2.762215E-1,-6.382783E-2,2.4506699E-1,9.594021E-2,-4.8785422E-2,-1.557616E-1],"split_indices":[5,9,9,1,5,0,5,9,7,9,5,1,0,9,9,9,6,9,1,0,0,9,9,6,6,0,0,9,0,7,9,0,5,5,9,9,9,4,9,6,4,6,0,0,9,9,5,7,9,0,4,7,0,7,4,5,4,0,5,0,0,0,0,0,0,0,0,0,0,0,0,0,0,0,0,0,0,0,0,0,0,0,0,0,0,0,0,0,0,0,0,0,0,0,0,0,0,0,0,0,0,0,0,0,0,0,0,0,0,0,0,0,0],"split_type":[0,0,0,0,0,0,0,0,0,0,0,0,0,0,0,0,0,0,0,0,0,0,0,0,0,0,0,0,0,0,0,0,0,0,0,0,0,0,0,0,0,0,0,0,0,0,0,0,0,0,0,0,0,0,0,0,0,0,0,0,0,0,0,0,0,0,0,0,0,0,0,0,0,0,0,0,0,0,0,0,0,0,0,0,0,0,0,0,0,0,0,0,0,0,0,0,0,0,0,0,0,0,0,0,0,0,0,0,0,0,0,0,0],"sum_hessian":[1.9378E4,1.4814E4,4.564E3,9.743E3,5.071E3,4.145E3,4.19E2,3.312E3,6.431E3,1.762E3,3.309E3,3.527E3,6.18E2,2.23E2,1.96E2,1.853E3,1.459E3,3.042E3,3.389E3,6.15E2,1.147E3,1.688E3,1.621E3,3.08E2,3.219E3,1.54E2,4.64E2,7.5E1,1.48E2,5.4E1,1.42E2,6.06E2,1.247E3,1.214E3,2.45E2,1.168E3,1.874E3,1.076E3,2.313E3,4.36E2,1.79E2,6.7E2,4.77E2,6.99E2,9.89E2,5.21E2,1.1E3,6E1,2.48E2,2.9E2,2.929E3,3.5E1,4E1,2.9E1,1.19E2,1.3E1,4.1E1,1.1E1,1.31E2,5.5E2,5.6E1,6.94E2,5.53E2,8.42E2,3.72E2,2.13E2,3.2E1,4.13E2,7.55E2,1.249E3,6.25E2,5.36E2,5.4E2,1.878E3,4.35E2,3.58E2,7.8E1,6.2E1,1.17E2,2.7E1,6.43E2,2.14E2,2.63E2,2.81E2,4.18E2,4.91E2,4.98E2,2.35E2,2.86E2,6.47E2,4.53E2,2E0,5.8E1,5.6E1,1.92E2,1.22E2,2.807E3,1E1,2.5E1,7E0,3.3E1,1E1,1.9E1,6.4E1,5.5E1,2E0,1.1E1,7E0,3.4E1,4E0,7E0,1.08E2,2.3E1],"tree_param":{"num_deleted":"0","num_feature":"10","num_nodes":"113","size_leaf_vector":"1"}},{"base_weights":[-1.2339978E-3,1.7454003E0,-6.14257E0,6.263194E-2,4.9514446E0,-6.5127687E0,-8.9739734E-1,4.284479E0,-2.1358895E0,7.8741875E0,3.5424173E0,-6.764061E0,-5.0800214E0,-1.4249704E0,1.5981442E0,7.576883E0,1.7480016E-1,-4.9428132E-1,-3.4114375E0,5.0146017E0,9.406101E0,2.2541025E0,5.419032E0,-4.1139874E0,-6.904565E0,-2.837315E-1,-2.4349599E-1,-3.234641E-1,-1.2182578E0,2.3918366E-1,4.6366984E-1,6.416833E-1,1.100258E1,-3.057601E-1,2.6417627E0,2.1702206E0,-2.1226163E0,2.2683258E0,-3.6128907E0,8.266519E0,3.8895357E0,1.0825523E1,6.8722463E0,3.4586968E0,7.313977E-1,6.5006723E0,4.40457E0,-3.1970936E-1,-3.4931154E0,-7.666762E0,-6.7782106E0,-7.8475785E-1,-2.8596456E0,1.754865E0,-5.5060244E-1,5.671184E-2,-1.9986741E-1,6.15204E-1,4.5491344E-1,1.7328717E-2,-1.0077228E-1,1.7579405E-1,-1.1163878E-1,-1.0768477E-1,3.124666E-1,-6.339418E-2,-1.9552593E-1,-2.3929954E-1,2.627959E-1,-2.764293E-1,-1.5652256E-1,3.3219934E-1,4.811108E-1,1.0910565E-1,2.4916E-1,4.7589442E-1,6.056575E-1,3.8882336E-1,2.1413195E-1,9.141517E-2,3.5259733E-1,1.4311136E-1,4.6540005E-3,2.3288071E-1,4.730454E-1,2.787965E-1,1.5943885E-1,5.2066803E-2,-1.8531293E-1,-3.941755E-1,-2.6173362E-1,-2.5451097E-1,-3.4160346E-1,-1.9232932E-2,-8.975578E-2,-9.9243216E-2,-2.618676E-1,1.7452696E-2,1.3470139E-1,-4.8509077E-3,-8.636621E-2],"categories":[],"categories_nodes":[],"categories_segments":[],"categories_sizes":[],"default_left":[0,0,0,0,0,0,0,0,0,0,0,0,0,0,0,0,0,0,0,0,0,0,0,0,0,0,0,0,0,0,0,0,0,0,0,0,0,0,0,0,0,0,0,0,0,0,0,0,0,0,0,0,0,0,0,0,0,0,0,0,0,0,0,0,0,0,0,0,0,0,0,0,0,0,0,0,0,0,0,0,0,0,0,0,0,0,0,0,0,0,0,0,0,0,0,0,0,0,0,0,0],"id":3,"left_children":[1,3,5,7,9,11,13,15,17,19,21,23,25,27,29,31,33,35,37,39,41,43,45,47,49,-1,-1,-1,51,-1,53,55,57,59,61,63,65,67,69,71,73,75,77,79,81,83,85,-1,87,89,91,93,95,97,99,-1,-1,-1,-1,-1,-1,-1,-1,-1,-1,-1,-1,-1,-1,-1,-1,-1,-1,-1,-1,-1,-1,-1,-1,-1,-1,-1,-1,-1,-1,-1,-1,-1,-1,-1,-1,-1,-1,-1,-1,-1,-1,-1,-1,-1,-1],"loss_changes":[2.078189E5,8.137783E4,8.3235625E3,9.183443E4,2.1352773E4,1.4071094E3,3.7616888E2,4.5839984E4,1.3621158E4,7.3459062E3,8.460953E3,1.2387188E3,4.651758E1,2.3638983E2,1.7795226E2,4.4680375E4,1.7888118E3,1.2352546E4,4.1972734E3,2.128876E3,3.872914E3,3.8122744E3,1.535E3,2.2300928E2,2.5795312E2,0E0,0E0,0E0,1.5891135E2,0E0,5.0852356E1,1.4277849E3,3.0062969E3,1.4094724E3,1.0561652E3,1.906262E4,2.6948145E3,2.6807046E3,3.2498242E3,2.6659277E2,8.1191016E2,1.0645391E3,8.9509766E2,6.787832E3,1.2507725E3,3.7081758E3,1.0337754E3,0E0,1.3846777E2,1.9569336E2,2.1694531E2,7.225956E1,8.664111E1,2.1200172E1,1.1392319E1,0E0,0E0,0E0,0E0,0E0,0E0,0E0,0E0,0E0,0E0,0E0,0E0,0E0,0E0,0E0,0E0,0E0,0E0,0E0,0E0,0E0,0E0,0E0,0E0,0E0,0E0,0E0,0E0,0E0,0E0,0E0,0E0,0E0,0E0,0E0,0E0,0E0,0E0,0E0,0E0,0E0,0E0,0E0,0E0,0E0,0E0],"parents":[2147483647,0,0,1,1,2,2,3,3,4,4,5,5,6,6,7,7,8,8,9,9,10,10,11,11,12,12,13,13,14,14,15,15,16,16,17,17,18,18,19,19,20,20,21,21,22,22,23,23,24,24,28,28,30,30,31,31,32,32,33,33,34,34,35,35,36,36,37,37,38,38,39,39,40,40,41,41,42,42,43,43,44,44,45,45,46,46,48,48,49,49,50,50,51,51,52,52,53,53,54,54],"right_children":[2,4,6,8,10,12,14,16,18,20,22,24,26,28,30,32,34,36,38,40,42,44,46,48,50,-1,-1,-1,52,-1,54,56,58,60,62,64,66,68,70,72,74,76,78,80,82,84,86,-1,88,90,92,94,96,98,100,-1,-1,-1,-1,-1,-1,-1,-1,-1,-1,-1,-1,-1,-1,-1,-1,-1,-1,-1,-1,-1,-1,-1,-1,-1,-1,-1,-1,-1,-1,-1,-1,-1,-1,-1,-1,-1,-1,-1,-1,-1,-1,-1,-1,-1,-1],"split_conditions":[1.1931908E-1,6E0,6E0,1.4660907E-1,3.379011E-2,6.421314E0,1.5E1,3E0,2.7620065E-1,7E0,1.5E1,1.1685861E0,2.868929E-1,7.1881614E-3,1.1E1,2E0,5.708933E-4,3E0,3.3412639E-3,2.5842555E-3,2.9778088E-2,1.1E1,1.1E1,2E0,1.348828E-1,-2.837315E-1,-2.4349599E-1,-3.234641E-1,1.5798867E-1,2.3918366E-1,1.6915963E0,2.9778088E-2,3.298521E-4,1.0159646E-1,5E0,2E0,5E0,2E0,2E0,2E1,1.5E1,2E1,5.475425E-1,9E0,6.5625906E-2,9E0,7.086837E-2,-3.1970936E-1,6.0091496E-1,3.2671094E-3,1.6474855E0,1.2E1,7.3483154E-2,1.1982167E0,3.2114387E-3,5.671184E-2,-1.9986741E-1,6.15204E-1,4.5491344E-1,1.7328717E-2,-1.0077228E-1,1.7579405E-1,-1.1163878E-1,-1.0768477E-1,3.124666E-1,-6.339418E-2,-1.9552593E-1,-2.3929954E-1,2.627959E-1,-2.764293E-1,-1.5652256E-1,3.3219934E-1,4.811108E-1,1.0910565E-1,2.4916E-1,4.7589442E-1,6.056575E-1,3.8882336E-1,2.1413195E-1,9.141517E-2,3.5259733E-1,1.4311136E-1,4.6540005E-3,2.3288071E-1,4.730454E-1,2.787965E-1,1.5943885E-1,5.2066803E-2,-1.8531293E-1,-3.941755E-1,-2.6173362E-1,-2.5451097E-1,-3.4160346E-1,-1.9232932E-2,-8.975578E-2,-9.9243216E-2,-2.618676E-1,1.7452696E-2,1.3470139E-1,-4.8509077E-3,-8.636621E-2],"split_indices":[5,9,9,1,5,0,8,9,1,9,8,1,5,2,9,9,6,9,2,2,2,9,9,9,2,0,0,0,5,0,0,2,6,1,9,9,9,9,9,8,8,8,0,9,5,9,5,0,1,6,0,9,2,1,6,0,0,0,0,0,0,0,0,0,0,0,0,0,0,0,0,0,0,0,0,0,0,0,0,0,0,0,0,0,0,0,0,0,0,0,0,0,0,0,0,0,0,0,0,0,0],"split_type":[0,0,0,0,0,0,0,0,0,0,0,0,0,0,0,0,0,0,0,0,0,0,0,0,0,0,0,0,0,0,0,0,0,0,0,0,0,0,0,0,0,0,0,0,0,0,0,0,0,0,0,0,0,0,0,0,0,0,0,0,0,0,0,0,0,0,0,0,0,0,0,0,0,0,0,0,0,0,0,0,0,0,0,0,0,0,0,0,0,0,0,0,0,0,0,0,0,0,0,0,0],"sum_hessian":[1.9372E4,1.5083E4,4.289E3,9.892E3,5.191E3,4.006E3,2.83E2,3.387E3,6.505E3,1.687E3,3.504E3,3.405E3,6.01E2,2.34E2,4.9E1,1.88E3,1.507E3,2.845E3,3.66E3,5.9E2,1.097E3,2.079E3,1.425E3,1.73E2,3.232E3,1.5E2,4.51E2,8E0,2.26E2,1.2E1,3.7E1,6.22E2,1.258E3,1.262E3,2.45E2,1.079E3,1.766E3,1.25E2,3.535E3,1.5E2,4.4E2,7.01E2,3.96E2,1.16E3,9.19E2,6.87E2,7.38E2,3.5E1,1.38E2,4.51E2,2.781E3,1.8E2,4.6E1,1.6E1,2.1E1,5.63E2,5.9E1,7.44E2,5.14E2,9.14E2,3.48E2,2.08E2,3.7E1,5.24E2,5.55E2,1.196E3,5.7E2,3.7E1,8.8E1,7.09E2,2.826E3,7.1E1,7.9E1,1.73E2,2.67E2,3.52E2,3.49E2,2.92E2,1.04E2,7.99E2,3.61E2,2.11E2,7.08E2,4.25E2,2.62E2,3.74E2,3.64E2,6E0,1.32E2,4.12E2,3.9E1,8.9E1,2.692E3,1.3E2,5E1,3.5E1,1.1E1,7E0,9E0,1.6E1,5E0],"tree_param":{"num_deleted":"0","num_feature":"10","num_nodes":"101","size_leaf_vector":"1"}},{"base_weights":[2.600538E-2,1.8295103E0,-5.387843E0,1.795452E-1,5.0540047E0,-6.1233525E0,-2.975168E-1,4.4896727E0,-1.7415447E0,7.62187E0,3.6722891E0,-4.119741E0,-6.2614264E0,-5.6815034E-1,3.1288836E0,7.5303655E0,4.9578023E-1,1.6481148E-1,-2.875833E0,4.9183755E0,9.052064E0,2.421129E0,5.315779E0,-5.718666E0,-3.2886553E0,-6.5190496E0,-4.8439994E0,-8.4848845E-1,2.1193051E0,2.5141585E-1,3.8384888E0,1.0794703E0,1.0655311E1,-2.145972E-1,2.7098875E0,-3.664111E0,4.248305E0,-2.1967478E0,-4.4721565E0,8.053154E0,3.734918E0,1.0624603E1,6.829653E0,3.3403826E0,1.1157125E0,6.8923473E0,4.667792E0,1.8668428E-2,-3.1300232E-1,-2.880542E-1,-2.826129E0,-6.476838E0,-4.463392E-1,-2.7056342E-1,-2.3216699E-1,-2.7429078E0,-4.361706E-1,3.914954E0,-2.8421253E-1,1.3909882E0,-2.837916E0,4.6310244E0,1.8591661E0,8.831537E-3,1.8767613E-1,5.9522516E-1,4.5166716E-1,2.558643E-2,-6.217123E-2,1.661711E-1,-9.6864335E-2,-3.7518892E-2,-2.3867439E-1,3.073561E-1,5.7298865E-2,-1.8299384E-1,-4.5599762E-2,-1.849861E-1,-2.7656174E-1,3.2251903E-1,4.723436E-1,1.0438533E-1,2.3747018E-1,4.7023207E-1,5.94762E-1,3.848518E-1,2.5688887E-1,8.694183E-2,3.5308084E-1,1.3947074E-1,3.246052E-2,3.15294E-1,5.27116E-1,1.0720318E-1,2.5702834E-1,7.577607E-2,-1.1031391E-1,2.1562247E-2,-1.446517E-1,-3.2498348E-1,-1.4714216E-1,-1.499275E-2,-1.9027479E-1,2.8067705E-1,-5.6605797E-2,5.161294E-2,2.8380057E-1,5.652942E-2,-1.0340609E-1,1.4350508E-1,-3.9032526E-2,-1.7633514E-1,-3.400856E-2,1.0750401E-1,2.4982193E-1,2.1693531E-2,1.873903E-1],"categories":[],"categories_nodes":[],"categories_segments":[],"categories_sizes":[],"default_left":[0,0,0,0,0,0,0,0,0,0,0,0,0,0,0,0,0,0,0,0,0,0,0,0,0,0,0,0,0,0,0,0,0,0,0,0,0,0,0,0,0,0,0,0,0,0,0,0,0,0,0,0,0,0,0,0,0,0,0,0,0,0,0,0,0,0,0,0,0,0,0,0,0,0,0,0,0,0,0,0,0,0,0,0,0,0,0,0,0,0,0,0,0,0,0,0,0,0,0,0,0,0,0,0,0,0,0,0,0,0,0,0,0,0,0,0,0],"id":4,"left_children":[1,3,5,7,9,11,13,15,17,19,21,23,25,27,29,31,33,35,37,39,41,43,45,47,49,51,53,55,57,59,61,63,65,67,69,71,73,75,77,79,81,83,85,87,89,91,93,95,-1,-1,97,99,-1,-1,-1,101,103,105,107,109,111,113,115,-1,-1,-1,-1,-1,-1,-1,-1,-1,-1,-1,-1,-1,-1,-1,-1,-1,-1,-1,-1,-1,-1,-1,-1,-1,-1,-1,-1,-1,-1,-1,-1,-1,-1,-1,-1,-1,-1,-1,-1,-1,-1,-1,-1,-1,-1,-1,-1,-1,-1,-1,-1,-1,-1],"loss_changes":[1.8939017E5,7.7408984E4,1.8144625E4,7.971274E4,1.7445086E4,1.1447656E3,5.699559E2,3.603944E4,1.4399881E4,6.6122266E3,6.5746445E3,3.4705273E2,1.4133281E3,4.303535E2,9.050992E1,3.3954734E4,2.0203728E3,3.886954E4,4.515375E3,2.18725E3,3.857375E3,2.181043E3,1.3805625E3,2.896067E2,1.9327539E2,2.8092188E2,4.364453E1,4.015348E2,2.3453294E2,3.9007988E1,4.7213684E1,1.3291902E3,2.1900469E3,7.277971E2,8.961521E2,4.1430703E3,7.0788027E3,5.5057783E3,9.971074E2,3.0158398E2,7.179878E2,9.044375E2,6.474297E2,6.351828E3,5.865576E2,7.9021484E2,1.1623164E3,3.324835E1,0E0,0E0,3.5709473E1,2.4570312E2,0E0,0E0,0E0,2.3727661E2,1.7952712E3,1.5084436E2,6.300498E1,2.814629E1,1.6392307E0,1.1206909E1,3.0258205E1,0E0,0E0,0E0,0E0,0E0,0E0,0E0,0E0,0E0,0E0,0E0,0E0,0E0,0E0,0E0,0E0,0E0,0E0,0E0,0E0,0E0,0E0,0E0,0E0,0E0,0E0,0E0,0E0,0E0,0E0,0E0,0E0,0E0,0E0,0E0,0E0,0E0,0E0,0E0,0E0,0E0,0E0,0E0,0E0,0E0,0E0,0E0,0E0,0E0,0E0,0E0,0E0,0E0,0E0],"parents":[2147483647,0,0,1,1,2,2,3,3,4,4,5,5,6,6,7,7,8,8,9,9,10,10,11,11,12,12,13,13,14,14,15,15,16,16,17,17,18,18,19,19,20,20,21,21,22,22,23,23,24,24,25,25,26,26,27,27,28,28,29,29,30,30,31,31,32,32,33,33,34,34,35,35,36,36,37,37,38,38,39,39,40,40,41,41,42,42,43,43,44,44,45,45,46,46,47,47,50,50,51,51,55,55,56,56,57,57,58,58,59,59,60,60,61,61,62,62],"right_children":[2,4,6,8,10,12,14,16,18,20,22,24,26,28,30,32,34,36,38,40,42,44,46,48,50,52,54,56,58,60,62,64,66,68,70,72,74,76,78,80,82,84,86,88,90,92,94,96,-1,-1,98,100,-1,-1,-1,102,104,106,108,110,112,114,116,-1,-1,-1,-1,-1,-1,-1,-1,-1,-1,-1,-1,-1,-1,-1,-1,-1,-1,-1,-1,-1,-1,-1,-1,-1,-1,-1,-1,-1,-1,-1,-1,-1,-1,-1,-1,-1,-1,-1,-1,-1,-1,-1,-1,-1,-1,-1,-1,-1,-1,-1,-1,-1,-1],"split_conditions":[1.032933E-1,6E0,6E0,1.2773795E-1,3.379011E-2,1.0925323E0,2E1,3E0,3E0,7E0,1.5E1,6.334654E-2,6.421314E0,3.1133473E-2,9.789288E-3,2E0,4.2188168E-4,2E0,5E0,2.5842555E-3,2.7365324E-1,1.1E1,1.4315522E-2,6.0091496E-1,2E0,5E0,6.685659E0,7E0,1.3350964E-1,2.5E1,1.5765679E0,2.5E1,1.5562892E-2,1.5562892E-2,5E0,2.5119725E-1,2.2577818E-2,4E0,3.5248825E-1,2E1,1.5E1,2E1,5.291242E-1,9E0,6.273258E-2,2.2705793E-3,7E0,1.5552044E-3,-3.1300232E-1,-2.880542E-1,5.582202E-1,4E0,-4.463392E-1,-2.7056342E-1,-2.3216699E-1,1.0245845E0,1.1E1,4.5164824E-3,1.5798867E-1,1.6672015E-3,7.620288E-1,1.096164E-1,3.0144427E-2,8.831537E-3,1.8767613E-1,5.9522516E-1,4.5166716E-1,2.558643E-2,-6.217123E-2,1.661711E-1,-9.6864335E-2,-3.7518892E-2,-2.3867439E-1,3.073561E-1,5.7298865E-2,-1.8299384E-1,-4.5599762E-2,-1.849861E-1,-2.7656174E-1,3.2251903E-1,4.723436E-1,1.0438533E-1,2.3747018E-1,4.7023207E-1,5.94762E-1,3.848518E-1,2.5688887E-1,8.694183E-2,3.5308084E-1,1.3947074E-1,3.246052E-2,3.15294E-1,5.27116E-1,1.0720318E-1,2.5702834E-1,7.577607E-2,-1.1031391E-1,2.1562247E-2,-1.446517E-1,-3.2498348E-1,-1.4714216E-1,-1.499275E-2,-1.9027479E-1,2.8067705E-1,-5.6605797E-2,5.161294E-2,2.8380057E-1,5.652942E-2,-1.0340609E-1,1.4350508E-1,-3.9032526E-2,-1.7633514E-1,-3.400856E-2,1.0750401E-1,2.4982193E-1,2.1693531E-2,1.873903E-1],"split_indices":[5,9,9,1,5,1,8,9,9,9,8,2,3,7,7,9,6,9,9,2,3,9,2,1,9,9,3,9,5,8,3,8,5,5,9,3,2,9,3,8,8,8,3,9,5,6,9,6,0,0,1,9,0,0,0,3,9,6,5,6,1,5,2,0,0,0,0,0,0,0,0,0,0,0,0,0,0,0,0,0,0,0,0,0,0,0,0,0,0,0,0,0,0,0,0,0,0,0,0,0,0,0,0,0,0,0,0,0,0,0,0,0,0,0,0,0,0],"split_type":[0,0,0,0,0,0,0,0,0,0,0,0,0,0,0,0,0,0,0,0,0,0,0,0,0,0,0,0,0,0,0,0,0,0,0,0,0,0,0,0,0,0,0,0,0,0,0,0,0,0,0,0,0,0,0,0,0,0,0,0,0,0,0,0,0,0,0,0,0,0,0,0,0,0,0,0,0,0,0,0,0,0,0,0,0,0,0,0,0,0,0,0,0,0,0,0,0,0,0,0,0,0,0,0,0,0,0,0,0,0,0,0,0,0,0,0,0],"sum_hessian":[1.9395E4,1.4549E4,4.846E3,9.625E3,4.924E3,4.234E3,6.12E2,2.967E3,6.658E3,1.721E3,3.203E3,2.75E2,3.959E3,5.68E2,4.4E1,1.684E3,1.283E3,2.484E3,4.174E3,5.97E2,1.124E3,1.82E3,1.383E3,9.2E1,1.83E2,3.347E3,6.12E2,5.15E2,5.3E1,9E0,3.5E1,5.5E2,1.134E3,9.72E2,3.11E2,1.282E3,1.202E3,2.93E3,1.244E3,1.62E2,4.35E2,6.56E2,4.68E2,1.067E3,7.53E2,4E2,9.83E2,8E0,8.4E1,2.7E1,1.56E2,3.293E3,5.4E1,1.53E2,4.59E2,9.1E1,4.24E2,3E1,2.3E1,7E0,2E0,2.4E1,1.1E1,4.12E2,1.38E2,6.37E2,4.97E2,5.7E2,4.02E2,2.75E2,3.6E1,3.54E2,9.28E2,7.45E2,4.57E2,1.369E3,1.561E3,7.22E2,5.22E2,7.8E1,8.4E1,1.67E2,2.68E2,3.39E2,3.17E2,3.07E2,1.61E2,7.47E2,3.2E2,1.63E2,5.9E2,3.47E2,5.3E1,1.56E2,8.27E2,5E0,3E0,3E0,1.53E2,3.271E3,2.2E1,2.8E1,6.3E1,4.3E1,3.81E2,1.2E1,1.8E1,1.3E1,1E1,4E0,3E0,1E0,1E0,4E0,2E1,7E0,4E0],"tree_param":{"num_deleted":"0","num_feature":"10","num_nodes":"117","size_leaf_vector":"1"}},{"base_weights":[3.3302125E-2,1.7185248E0,-5.178332E0,1.6324943E-1,4.753293E0,-5.8335123E0,-1.4163929E-1,3.8829062E0,-1.7937354E0,7.4522066E0,3.5404744E0,-4.2445564E0,-5.9937696E0,4.6231067E-1,-1.5074687E0,6.8785872E0,1.8664016E-1,4.4578733E0,-2.0922804E0,4.7496305E0,8.861517E0,2.7523649E0,5.8859515E0,-5.9517703E0,-3.2564046E0,-6.2773423E0,-4.7091045E0,2.8982823E0,-5.7912403E-1,-4.0759883E0,-9.6393627E-1,7.7005374E-1,9.92719E0,-7.603626E-1,1.2703534E0,-2.454854E-1,5.6606593E0,-1.5487849E0,-4.3560576E0,7.662497E0,3.6738548E0,7.4561386E0,1.0945723E1,3.6841438E0,1.5057094E0,8.144901E0,5.099014E0,-6.1495085E0,1.1665716E-1,-2.6966342E-1,-2.9704833E0,-6.984414E0,-6.1563597E0,-2.6287872E-1,-2.2061478E-1,-2.090356E-1,5.4186354E0,-8.685466E-1,2.524687E0,-4.281078E0,3.916293E-2,-7.28779E-1,-3.6463463E0,6.440231E-2,-1.9388108E-1,5.44502E-1,3.857193E-1,1.02815285E-1,-6.038956E-2,1.5871653E-1,-6.892073E-2,-1.6926664E-1,1.398885E-1,2.3350704E-1,4.1131637E-1,6.728664E-3,-1.2487819E-1,-1.7946942E-1,-2.6403362E-1,2.9890484E-1,4.445966E-1,1.275141E-1,2.6159424E-1,4.3460202E-1,2.8975767E-1,5.7255334E-1,4.537538E-1,7.00933E-2,3.0525786E-1,2.0278613E-1,5.5111747E-2,2.4097691E-1,4.19895E-1,1.3778435E-1,2.7944097E-1,-4.310965E-2,-3.191276E-1,-1.1984414E-1,-1.7846152E-1,-3.6051354E-1,-2.2820385E-1,-2.7104014E-1,-3.1245983E-1,-7.261122E-2,2.2737987E-1,4.2023274E-1,2.4148376E-1,-9.674749E-3,-7.2210416E-2,-3.4055576E-2,1.9880217E-1,-2.365845E-1,-1.1195006E-1,-8.009722E-3,-8.636695E-2,-2.3996313E-1,-1.1438211E-1],"categories":[],"categories_nodes":[],"categories_segments":[],"categories_sizes":[],"default_left":[0,0,0,0,0,0,0,0,0,0,0,0,0,0,0,0,0,0,0,0,0,0,0,0,0,0,0,0,0,0,0,0,0,0,0,0,0,0,0,0,0,0,0,0,0,0,0,0,0,0,0,0,0,0,0,0,0,0,0,0,0,0,0,0,0,0,0,0,0,0,0,0,0,0,0,0,0,0,0,0,0,0,0,0,0,0,0,0,0,0,0,0,0,0,0,0,0,0,0,0,0,0,0,0,0,0,0,0,0,0,0,0,0,0,0,0,0],"id":5,"left_children":[1,3,5,7,9,11,13,15,17,19,21,23,25,27,29,31,33,35,37,39,41,43,45,47,49,51,53,55,57,59,61,63,65,67,69,71,73,75,77,79,81,83,85,87,89,91,93,95,-1,-1,97,99,101,-1,-1,103,105,107,109,111,-1,113,115,-1,-1,-1,-1,-1,-1,-1,-1,-1,-1,-1,-1,-1,-1,-1,-1,-1,-1,-1,-1,-1,-1,-1,-1,-1,-1,-1,-1,-1,-1,-1,-1,-1,-1,-1,-1,-1,-1,-1,-1,-1,-1,-1,-1,-1,-1,-1,-1,-1,-1,-1,-1,-1,-1],"loss_changes":[1.7048198E5,6.9230234E4,1.5650203E4,7.060922E4,1.6240781E4,1.0422812E3,4.5201767E2,3.7025566E4,1.1871844E4,5.8220547E3,6.3251133E3,6.3424854E2,1.3573125E3,9.659344E2,2.3010739E2,3.438703E4,1.5383835E3,1.6425005E3,7.457211E3,1.6315195E3,2.8778594E3,2.9792656E3,1.4894824E3,2.4572168E2,1.346648E2,2.2241406E2,8.864844E1,8.9444904E2,2.4187677E2,3.260385E1,8.5215485E1,1.4877314E3,2.5390234E3,1.01060504E3,3.5297478E3,5.8285156E2,5.473428E2,7.816952E3,8.12375E2,2.3941797E2,6.6684717E2,1.1942383E3,2.768828E2,8.1130645E3,1.1277942E3,1.4413379E2,7.2063477E2,1.638125E2,0E0,0E0,6.67489E1,2.108125E2,1.4735156E2,0E0,0E0,3.1379102E2,6.887952E1,9.47641E1,1.10050995E2,1.4473816E1,0E0,7.334408E1,5.543503E0,0E0,0E0,0E0,0E0,0E0,0E0,0E0,0E0,0E0,0E0,0E0,0E0,0E0,0E0,0E0,0E0,0E0,0E0,0E0,0E0,0E0,0E0,0E0,0E0,0E0,0E0,0E0,0E0,0E0,0E0,0E0,0E0,0E0,0E0,0E0,0E0,0E0,0E0,0E0,0E0,0E0,0E0,0E0,0E0,0E0,0E0,0E0,0E0,0E0,0E0,0E0,0E0,0E0,0E0],"parents":[2147483647,0,0,1,1,2,2,3,3,4,4,5,5,6,6,7,7,8,8,9,9,10,10,11,11,12,12,13,13,14,14,15,15,16,16,17,17,18,18,19,19,20,20,21,21,22,22,23,23,24,24,25,25,26,26,27,27,28,28,29,29,30,30,31,31,32,32,33,33,34,34,35,35,36,36,37,37,38,38,39,39,40,40,41,41,42,42,43,43,44,44,45,45,46,46,47,47,50,50,51,51,52,52,55,55,56,56,57,57,58,58,59,59,61,61,62,62],"right_children":[2,4,6,8,10,12,14,16,18,20,22,24,26,28,30,32,34,36,38,40,42,44,46,48,50,52,54,56,58,60,62,64,66,68,70,72,74,76,78,80,82,84,86,88,90,92,94,96,-1,-1,98,100,102,-1,-1,104,106,108,110,112,-1,114,116,-1,-1,-1,-1,-1,-1,-1,-1,-1,-1,-1,-1,-1,-1,-1,-1,-1,-1,-1,-1,-1,-1,-1,-1,-1,-1,-1,-1,-1,-1,-1,-1,-1,-1,-1,-1,-1,-1,-1,-1,-1,-1,-1,-1,-1,-1,-1,-1,-1,-1,-1,-1,-1,-1],"split_conditions":[1.0558599E-1,6E0,6E0,1.4384751E-1,3.1220198E-2,1.2660073E0,1.3225764E-1,3E0,2.1256623E-3,7E0,2E1,6.334654E-2,6.31039E0,1.1E1,1.4166822E-2,2E0,4E0,2E0,5E0,2.5842555E-3,2E1,1.1E1,1.081568E-2,1.354174E0,2E0,1.348828E-1,6.685659E0,7E0,2E1,2.8013525E0,1.097368E-1,2.9778088E-2,2.0773888E-2,4.9320083E-2,5E0,2E1,1.5E1,2.5285387E-1,1.7149739E-2,2E1,2E1,3.0568128E-2,2.7365324E-1,7E0,5.4872513E-2,9.327652E-2,7E0,6.13732E-1,1.1665716E-1,-2.6966342E-1,1.0191358E0,3.2671094E-3,3.1110644E-3,-2.6287872E-1,-2.2061478E-1,1.5E1,1.4877722E0,1.2E1,2.014637E-3,1.7201823E-1,3.916293E-2,1.2E1,2.5644581E0,6.440231E-2,-1.9388108E-1,5.44502E-1,3.857193E-1,1.02815285E-1,-6.038956E-2,1.5871653E-1,-6.892073E-2,-1.6926664E-1,1.398885E-1,2.3350704E-1,4.1131637E-1,6.728664E-3,-1.2487819E-1,-1.7946942E-1,-2.6403362E-1,2.9890484E-1,4.445966E-1,1.275141E-1,2.6159424E-1,4.3460202E-1,2.8975767E-1,5.7255334E-1,4.537538E-1,7.00933E-2,3.0525786E-1,2.0278613E-1,5.5111747E-2,2.4097691E-1,4.19895E-1,1.3778435E-1,2.7944097E-1,-4.310965E-2,-3.191276E-1,-1.1984414E-1,-1.7846152E-1,-3.6051354E-1,-2.2820385E-1,-2.7104014E-1,-3.1245983E-1,-7.261122E-2,2.2737987E-1,4.2023274E-1,2.4148376E-1,-9.674749E-3,-7.2210416E-2,-3.4055576E-2,1.9880217E-1,-2.365845E-1,-1.1195006E-1,-8.009722E-3,-8.636695E-2,-2.3996313E-1,-1.1438211E-1],"split_indices":[5,9,9,1,5,1,5,9,2,9,8,2,0,9,2,9,9,9,9,2,8,9,2,0,9,2,0,9,8,0,2,2,5,1,9,8,8,1,2,8,8,2,0,9,5,1,9,0,0,0,1,6,6,0,0,8,0,9,6,5,0,9,0,0,0,0,0,0,0,0,0,0,0,0,0,0,0,0,0,0,0,0,0,0,0,0,0,0,0,0,0,0,0,0,0,0,0,0,0,0,0,0,0,0,0,0,0,0,0,0,0,0,0,0,0,0,0],"split_type":[0,0,0,0,0,0,0,0,0,0,0,0,0,0,0,0,0,0,0,0,0,0,0,0,0,0,0,0,0,0,0,0,0,0,0,0,0,0,0,0,0,0,0,0,0,0,0,0,0,0,0,0,0,0,0,0,0,0,0,0,0,0,0,0,0,0,0,0,0,0,0,0,0,0,0,0,0,0,0,0,0,0,0,0,0,0,0,0,0,0,0,0,0,0,0,0,0,0,0,0,0,0,0,0,0,0,0,0,0,0,0,0,0,0,0,0,0],"sum_hessian":[1.9409E4,1.4667E4,4.742E3,9.698E3,4.969E3,4.196E3,5.46E2,3.343E3,6.355E3,1.539E3,3.43E3,3.87E2,3.809E3,3.79E2,1.67E2,1.846E3,1.497E3,2.89E2,6.066E3,5.29E2,1.01E3,2.569E3,8.61E2,1.4E2,2.47E2,3.117E3,6.92E2,1.13E2,2.66E2,2.8E1,1.39E2,6.15E2,1.231E3,7.99E2,6.98E2,5.9E1,2.3E2,4.893E3,1.173E3,1.41E2,3.88E2,6.06E2,4.04E2,1.469E3,1.1E3,2.2E2,6.41E2,1.37E2,3E0,2.7E1,2.2E2,4.47E2,2.67E3,2.37E2,4.55E2,5.1E1,6.2E1,2.44E2,2.2E1,2.7E1,1E0,1.29E2,1E1,5.54E2,6.1E1,8.55E2,3.76E2,1.09E2,6.9E2,4.06E2,2.92E2,2.9E1,3E1,1.68E2,6.2E1,1.764E3,3.129E3,6.44E2,5.29E2,6.2E1,7.9E1,2.27E2,1.61E2,3.45E2,2.61E2,3.14E2,9E1,7.57E2,7.12E2,1.49E2,9.51E2,1.7E1,2.03E2,1.12E2,5.29E2,6E0,1.31E2,1.15E2,1.05E2,4.07E2,4E1,3.06E2,2.364E3,4.1E1,1E1,8E0,5.4E1,1.13E2,1.31E2,7E0,1.5E1,2.1E1,6E0,8.3E1,4.6E1,4E0,6E0],"tree_param":{"num_deleted":"0","num_feature":"10","num_nodes":"117","size_leaf_vector":"1"}},{"base_weights":[-1.7020386E-2,2.1853566E0,-3.616016E0,5.206512E0,1.0180898E0,-6.892859E-1,-5.2002354E0,8.290943E0,3.2266953E0,-1.4352306E0,3.6777582E0,2.242968E0,-1.5540258E0,-5.3733644E0,-5.7042074E-1,1.6043667E0,9.889253E0,4.645108E-1,7.1885757E0,2.2529926E0,-2.6229017E0,2.3699508E0,5.4205995E0,7.3591747E0,1.7821487E0,-1.9937512E0,1.2791669E0,1.1584712E0,-5.442992E0,1.5712736E0,-1.6187497E0,5.1006836E-1,6.2424245E0,1.0861883E1,7.973224E0,-6.812109E-1,1.9105932E0,4.671334E0,9.888518E0,-2.8364697E0,5.257605E0,-1.9663496E0,-4.1877728E0,3.5713546E0,6.2566686E-1,6.5885673E0,3.87594E0,3.3427992E0,7.850971E0,2.7974117E0,3.8903934E-1,-9.459795E-1,-3.2599795E0,5.948791E0,5.947807E-1,4.9129912E-1,3.1663105E0,-4.458607E0,-5.728849E0,1.033808E0,2.3607622E-1,-1.8431143E0,1.39256E-1,6.915932E-2,-9.7759575E-2,-3.1369355E-2,3.529078E-1,5.004928E-1,5.8789414E-1,3.5031545E-1,4.9859723E-1,4.788577E-2,-6.370898E-2,1.5586285E-1,-5.650223E-2,3.6237782E-1,1.8009667E-1,2.9385158E-1,5.0983936E-1,-1.8071377E-1,1.14937626E-1,2.9861486E-1,1.3827102E-1,-6.946927E-2,-1.9654076E-1,-1.3842103E-1,-2.3771398E-1,3.2567773E-2,2.7424395E-1,6.8216436E-2,-1.8653754E-2,2.1926065E-1,4.0317202E-1,3.2163143E-1,1.6831897E-1,1.8309793E-1,3.3196077E-2,4.008433E-1,2.3732005E-2,4.8359368E-2,3.0897066E-1,-2.5319165E-2,1.836224E-1,-1.3986526E-1,7.769019E-2,-1.3228804E-1,-2.0007408E-1,2.3188579E-1,3.851121E-1,9.1618106E-2,-1.6280567E-2,8.8441156E-2,-1.0469245E-1,2.3612897E-1,-5.5093642E-2,-2.4637233E-1,-1.7000306E-1,-3.0071622E-1,-2.1722133E-1,1.1780037E-1,1.6968053E-2,3.7582503E-3,-1.0173886E-1],"categories":[],"categories_nodes":[],"categories_segments":[],"categories_sizes":[],"default_left":[0,0,0,0,0,0,0,0,0,0,0,0,0,0,0,0,0,0,0,0,0,0,0,0,0,0,0,0,0,0,0,0,0,0,0,0,0,0,0,0,0,0,0,0,0,0,0,0,0,0,0,0,0,0,0,0,0,0,0,0,0,0,0,0,0,0,0,0,0,0,0,0,0,0,0,0,0,0,0,0,0,0,0,0,0,0,0,0,0,0,0,0,0,0,0,0,0,0,0,0,0,0,0,0,0,0,0,0,0,0,0,0,0,0,0,0,0,0,0,0,0,0,0],"id":6,"left_children":[1,3,5,7,9,11,13,15,17,19,21,23,25,27,29,31,33,35,37,39,41,43,45,47,49,51,53,55,57,59,61,63,65,67,69,71,73,75,77,79,81,83,85,87,89,91,93,95,97,99,101,103,105,107,109,111,113,115,117,119,-1,121,-1,-1,-1,-1,-1,-1,-1,-1,-1,-1,-1,-1,-1,-1,-1,-1,-1,-1,-1,-1,-1,-1,-1,-1,-1,-1,-1,-1,-1,-1,-1,-1,-1,-1,-1,-1,-1,-1,-1,-1,-1,-1,-1,-1,-1,-1,-1,-1,-1,-1,-1,-1,-1,-1,-1,-1,-1,-1,-1,-1,-1],"loss_changes":[1.5254261E5,4.2096883E4,3.3870695E4,2.0288781E4,5.6205492E4,6.5123975E3,3.7957266E3,1.3876367E4,2.2189205E4,1.9634502E4,9.406727E3,1.3651943E3,2.4730967E3,2.0846875E3,3.8872266E2,1.2751462E3,1.8664219E3,1.9829666E3,5.613754E3,1.6713867E4,3.4740996E3,4.9492236E3,3.1685E3,6.7448E1,7.595254E2,2.2744697E3,8.4909314E2,6.371779E1,1.245625E3,9.105295E1,1.1965552E2,4.4390213E2,2.7405933E2,4.0917188E2,6.1836914E2,6.504358E2,1.9446376E3,1.1657305E3,4.3434766E2,1.6300876E3,1.2062559E3,2.7028955E3,7.909629E2,7.812711E3,7.1252E2,3.2358086E3,9.73999E2,3.1210709E0,4.6740967E1,1.9183428E3,6.7250507E2,4.3593364E3,3.426289E2,4.1208008E1,2.6728732E2,1.2916953E2,8.527505E1,4.8961914E2,1.3560938E3,4.4840794E1,0E0,4.1159454E1,0E0,0E0,0E0,0E0,0E0,0E0,0E0,0E0,0E0,0E0,0E0,0E0,0E0,0E0,0E0,0E0,0E0,0E0,0E0,0E0,0E0,0E0,0E0,0E0,0E0,0E0,0E0,0E0,0E0,0E0,0E0,0E0,0E0,0E0,0E0,0E0,0E0,0E0,0E0,0E0,0E0,0E0,0E0,0E0,0E0,0E0,0E0,0E0,0E0,0E0,0E0,0E0,0E0,0E0,0E0,0E0,0E0,0E0,0E0,0E0,0E0],"parents":[2147483647,0,0,1,1,2,2,3,3,4,4,5,5,6,6,7,7,8,8,9,9,10,10,11,11,12,12,13,13,14,14,15,15,16,16,17,17,18,18,19,19,20,20,21,21,22,22,23,23,24,24,25,25,26,26,27,27,28,28,29,29,30,30,31,31,32,32,33,33,34,34,35,35,36,36,37,37,38,38,39,39,40,40,41,41,42,42,43,43,44,44,45,45,46,46,47,47,48,48,49,49,50,50,51,51,52,52,53,53,54,54,55,55,56,56,57,57,58,58,59,59,61,61],"right_children":[2,4,6,8,10,12,14,16,18,20,22,24,26,28,30,32,34,36,38,40,42,44,46,48,50,52,54,56,58,60,62,64,66,68,70,72,74,76,78,80,82,84,86,88,90,92,94,96,98,100,102,104,106,108,110,112,114,116,118,120,-1,122,-1,-1,-1,-1,-1,-1,-1,-1,-1,-1,-1,-1,-1,-1,-1,-1,-1,-1,-1,-1,-1,-1,-1,-1,-1,-1,-1,-1,-1,-1,-1,-1,-1,-1,-1,-1,-1,-1,-1,-1,-1,-1,-1,-1,-1,-1,-1,-1,-1,-1,-1,-1,-1,-1,-1,-1,-1,-1,-1,-1,-1],"split_conditions":[1.1747183E-1,1.4175467E-1,1.6091526E-2,3E0,6E0,1.1164284E-1,6E0,2E0,6E0,3E0,1.5E1,4.495127E-2,6E0,1.8089011E-1,5.191416E-1,2.5E1,8.875525E-2,4E0,7E0,2E0,5.1874435E-1,1.1E1,1.1E1,1.450181E-4,3E0,3E0,3.960627E-3,2.5E1,1.3537363E0,9.1576266E-1,3.2114387E-3,1.3000812E-1,5.2752364E-2,2E1,2E1,5.636428E-2,5E0,2.5842555E-3,2.9462576E-4,2.5E1,2.2577818E-2,5E0,4.876825E-2,7E0,4.6911098E-2,7E0,8.128994E-1,1.6203332E-1,3.7286147E-3,2E0,6E0,2E0,2.7094823E-1,5.475425E-1,1.0499299E-2,1.5384649E-1,9.1296434E-4,8.271087E-2,6.421314E0,2.2748415E-1,2.3607622E-1,6.7943335E-4,1.39256E-1,6.915932E-2,-9.7759575E-2,-3.1369355E-2,3.529078E-1,5.004928E-1,5.8789414E-1,3.5031545E-1,4.9859723E-1,4.788577E-2,-6.370898E-2,1.5586285E-1,-5.650223E-2,3.6237782E-1,1.8009667E-1,2.9385158E-1,5.0983936E-1,-1.8071377E-1,1.14937626E-1,2.9861486E-1,1.3827102E-1,-6.946927E-2,-1.9654076E-1,-1.3842103E-1,-2.3771398E-1,3.2567773E-2,2.7424395E-1,6.8216436E-2,-1.8653754E-2,2.1926065E-1,4.0317202E-1,3.2163143E-1,1.6831897E-1,1.8309793E-1,3.3196077E-2,4.008433E-1,2.3732005E-2,4.8359368E-2,3.0897066E-1,-2.5319165E-2,1.836224E-1,-1.3986526E-1,7.769019E-2,-1.3228804E-1,-2.0007408E-1,2.3188579E-1,3.851121E-1,9.1618106E-2,-1.6280567E-2,8.8441156E-2,-1.0469245E-1,2.3612897E-1,-5.5093642E-2,-2.4637233E-1,-1.7000306E-1,-3.0071622E-1,-2.1722133E-1,1.1780037E-1,1.6968053E-2,3.7582503E-3,-1.0173886E-1],"split_indices":[4,1,7,9,9,1,9,9,9,9,8,0,9,0,1,8,1,9,9,9,0,9,9,6,9,9,2,8,1,0,6,0,1,8,8,1,9,2,6,8,2,9,4,9,2,9,1,4,2,9,9,9,1,0,7,4,6,2,0,1,0,6,0,0,0,0,0,0,0,0,0,0,0,0,0,0,0,0,0,0,0,0,0,0,0,0,0,0,0,0,0,0,0,0,0,0,0,0,0,0,0,0,0,0,0,0,0,0,0,0,0,0,0,0,0,0,0,0,0,0,0,0,0],"split_type":[0,0,0,0,0,0,0,0,0,0,0,0,0,0,0,0,0,0,0,0,0,0,0,0,0,0,0,0,0,0,0,0,0,0,0,0,0,0,0,0,0,0,0,0,0,0,0,0,0,0,0,0,0,0,0,0,0,0,0,0,0,0,0,0,0,0,0,0,0,0,0,0,0,0,0,0,0,0,0,0,0,0,0,0,0,0,0,0,0,0,0,0,0,0,0,0,0,0,0,0,0,0,0,0,0,0,0,0,0,0,0,0,0,0,0,0,0,0,0,0,0,0,0],"sum_hessian":[1.9243E4,1.1938E4,7.305E3,3.326E3,8.612E3,2.566E3,4.739E3,1.299E3,2.027E3,4.48E3,4.132E3,5.84E2,1.982E3,4.568E3,1.71E2,2.51E2,1.048E3,1.195E3,8.32E2,1.091E3,3.389E3,2.362E3,1.77E3,4.7E1,5.37E2,1.716E3,2.66E2,4.8E1,4.52E3,5.6E1,1.15E2,2.04E2,4.7E1,6.92E2,3.56E2,6.67E2,5.28E2,4.32E2,4E2,4.05E2,6.86E2,2.389E3,1E3,1.398E3,9.64E2,1.006E3,7.64E2,6E0,4.1E1,3.1E2,2.27E2,9.4E2,7.76E2,3.3E1,2.33E2,3.7E1,1.1E1,1.021E3,3.499E3,4.9E1,7E0,1.1E2,5E0,1.51E2,5.3E1,5E0,4.2E1,3.61E2,3.31E2,2.43E2,1.13E2,1.77E2,4.9E2,3.78E2,1.5E2,1.25E2,3.07E2,3E1,3.7E2,3.52E2,5.3E1,5.32E2,1.54E2,1.848E3,5.41E2,2.87E2,7.13E2,5.54E2,8.44E2,5.54E2,4.1E2,4.05E2,6.01E2,1.25E2,6.39E2,5E0,1E0,4E1,1E0,2.02E2,1.08E2,1.79E2,4.8E1,5.4E2,4E2,4.27E2,3.49E2,2.1E1,1.2E1,9.9E1,1.34E2,2.5E1,1.2E1,8E0,3E0,7.05E2,3.16E2,2.898E3,6.01E2,1.6E1,3.3E1,1E1,1E2],"tree_param":{"num_deleted":"0","num_feature":"10","num_nodes":"123","size_leaf_vector":"1"}},{"base_weights":[1.1590563E-2,2.4123533E0,-3.0875447E0,5.294839E0,1.1205583E0,-9.0837765E-1,-4.9963346E0,8.299695E0,3.7344332E0,-1.0342298E0,3.4492602E0,1.9298296E0,-1.7272555E0,-5.2599845E0,-5.935615E-1,1.4531534E0,9.278173E0,2.3217376E-1,7.411175E0,3.1423697E0,-2.330344E0,4.5288424E0,1.4180218E0,7.5651674E0,1.5384929E0,-2.2675047E0,1.3818755E0,-5.4342055E0,-4.0512004E0,2.5319676E0,-8.8530535E-1,1.7216384E-1,6.1551094E0,1.0414181E1,7.354929E0,5.6653565E-1,-1.9542327E0,4.671764E0,8.455997E0,-1.7575111E0,5.5089107E0,2.5209727E0,-2.5596824E0,3.3062222E0,5.7362075E0,3.4354284E0,6.24585E-1,8.124421E0,4.114233E0,3.502358E-1,1.3730785E0,-8.214604E-1,-2.986255E0,3.6516147E0,8.6257833E-1,-4.1806526E0,-5.686457E0,-2.3301291E-1,-1.9809343E-1,9.676888E-1,3.5327997E0,-1.1938972E0,4.7211155E-1,9.4747916E-2,-1.3771293E-1,3.7793016E-1,-1.3173895E-1,4.756349E-1,5.6656677E-1,2.883209E-1,4.5396397E-1,-3.1602845E-2,9.093783E-2,3.4977425E-2,-1.23101525E-1,1.665015E-1,3.0554032E-1,4.652863E-1,2.9160252E-1,1.5966171E-2,-1.9185613E-1,3.5020515E-1,1.9608976E-1,-2.3694874E-3,1.5674809E-1,-1.7353335E-1,-9.533357E-2,9.325608E-2,1.9940476E-1,3.192723E-1,2.3475885E-1,-2.9995928E-2,2.728034E-1,5.6664483E-3,1.7147206E-1,4.1659006E-1,1.1015566E-1,2.8832805E-1,6.442965E-2,1.06432095E-1,1.8179031E-2,4.3823063E-2,-1.0880937E-1,-2.0995258E-1,-1.07561484E-1,2.7935588E-1,1.6434986E-2,-9.433293E-4,1.00377634E-1,-2.634636E-1,-1.6035101E-1,-2.7834406E-1,-3.19916E-1,6.761622E-2,-5.98508E-2,3.8044523E-2,1.9792603E-1,-7.2738975E-2,4.8114695E-3,1.7597E-1,-1.22943245E-1],"categories":[],"categories_nodes":[],"categories_segments":[],"categories_sizes":[],"default_left":[0,0,0,0,0,0,0,0,0,0,0,0,0,0,0,0,0,0,0,0,0,0,0,0,0,0,0,0,0,0,0,0,0,0,0,0,0,0,0,0,0,0,0,0,0,0,0,0,0,0,0,0,0,0,0,0,0,0,0,0,0,0,0,0,0,0,0,0,0,0,0,0,0,0,0,0,0,0,0,0,0,0,0,0,0,0,0,0,0,0,0,0,0,0,0,0,0,0,0,0,0,0,0,0,0,0,0,0,0,0,0,0,0,0,0,0,0,0,0,0,0],"id":7,"left_children":[1,3,5,7,9,11,13,15,17,19,21,23,25,27,29,31,33,35,37,39,41,43,45,47,49,51,53,55,57,59,61,63,65,67,69,71,73,75,77,79,81,83,85,87,89,91,93,95,97,-1,99,101,103,105,107,109,111,-1,-1,113,115,117,119,-1,-1,-1,-1,-1,-1,-1,-1,-1,-1,-1,-1,-1,-1,-1,-1,-1,-1,-1,-1,-1,-1,-1,-1,-1,-1,-1,-1,-1,-1,-1,-1,-1,-1,-1,-1,-1,-1,-1,-1,-1,-1,-1,-1,-1,-1,-1,-1,-1,-1,-1,-1,-1,-1,-1,-1,-1,-1],"loss_changes":[1.436719E5,4.050971E4,3.5055906E4,1.5754977E4,3.771302E4,9.153471E3,5.2117266E3,7.689508E3,2.8558486E4,2.114096E4,7.913699E3,1.9325376E3,5.1364033E3,8.6975E2,2.345997E2,8.716653E2,2.1195625E3,8.321734E2,3.0560781E3,1.0736145E4,3.3219873E3,3.4608906E3,2.0063071E3,7.535742E1,7.364072E2,2.70362E3,5.303359E2,1.1458516E3,9.9453125E0,3.0574066E1,9.8655594E1,5.849201E2,4.0284094E2,4.110078E2,9.7881836E2,1.482659E3,2.0538367E2,5.5988135E2,1.687793E3,1.305918E3,1.4522188E3,2.133451E2,1.6858809E3,1.1456045E3,7.698242E2,2.8902676E3,1.2927247E3,3.9532715E1,3.8552567E1,0E0,6.114569E2,1.9940281E3,1.7514453E3,5.37819E2,3.7365247E2,6.436406E2,2.2527344E2,0E0,0E0,9.96051E0,1.1856842E1,6.456091E1,4.0174713E2,0E0,0E0,0E0,0E0,0E0,0E0,0E0,0E0,0E0,0E0,0E0,0E0,0E0,0E0,0E0,0E0,0E0,0E0,0E0,0E0,0E0,0E0,0E0,0E0,0E0,0E0,0E0,0E0,0E0,0E0,0E0,0E0,0E0,0E0,0E0,0E0,0E0,0E0,0E0,0E0,0E0,0E0,0E0,0E0,0E0,0E0,0E0,0E0,0E0,0E0,0E0,0E0,0E0,0E0,0E0,0E0,0E0,0E0],"parents":[2147483647,0,0,1,1,2,2,3,3,4,4,5,5,6,6,7,7,8,8,9,9,10,10,11,11,12,12,13,13,14,14,15,15,16,16,17,17,18,18,19,19,20,20,21,21,22,22,23,23,24,24,25,25,26,26,27,27,28,28,29,29,30,30,31,31,32,32,33,33,34,34,35,35,36,36,37,37,38,38,39,39,40,40,41,41,42,42,43,43,44,44,45,45,46,46,47,47,48,48,50,50,51,51,52,52,53,53,54,54,55,55,56,56,59,59,60,60,61,61,62,62],"right_children":[2,4,6,8,10,12,14,16,18,20,22,24,26,28,30,32,34,36,38,40,42,44,46,48,50,52,54,56,58,60,62,64,66,68,70,72,74,76,78,80,82,84,86,88,90,92,94,96,98,-1,100,102,104,106,108,110,112,-1,-1,114,116,118,120,-1,-1,-1,-1,-1,-1,-1,-1,-1,-1,-1,-1,-1,-1,-1,-1,-1,-1,-1,-1,-1,-1,-1,-1,-1,-1,-1,-1,-1,-1,-1,-1,-1,-1,-1,-1,-1,-1,-1,-1,-1,-1,-1,-1,-1,-1,-1,-1,-1,-1,-1,-1,-1,-1,-1,-1,-1,-1],"split_conditions":[1.0459553E-1,2.5384247E-2,8.7222576E-2,3E0,6E0,1.1586048E-1,6E0,2E0,6E0,3E0,7.611054E-2,4.495127E-2,6E0,6.536416E0,6.117396E-1,2.5E1,8.875525E-2,5E0,7E0,2E0,9.9184975E-2,1.5E1,1.1E1,3.481421E-3,5.431166E-4,2.3311205E-1,5.2953446E-3,1.3537363E0,2.8131425E-1,2.7175682E-2,2.2651613E0,1.1164618E-1,9.958271E-2,2E1,1.5E1,4E0,3.6819085E-2,2E1,2.9778088E-2,2.643405E-1,2.3130903E-1,4E0,4E0,7E0,1.1E1,9E0,2E1,1.6628301E-1,1.5079808E-1,3.502358E-1,3E0,3E0,2E0,6.2072515E-2,7E0,6.886492E-2,3E0,-2.3301291E-1,-1.9809343E-1,6.412168E-1,1.0894245E-1,3.988953E-2,1.1E1,9.4747916E-2,-1.3771293E-1,3.7793016E-1,-1.3173895E-1,4.756349E-1,5.6656677E-1,2.883209E-1,4.5396397E-1,-3.1602845E-2,9.093783E-2,3.4977425E-2,-1.23101525E-1,1.665015E-1,3.0554032E-1,4.652863E-1,2.9160252E-1,1.5966171E-2,-1.9185613E-1,3.5020515E-1,1.9608976E-1,-2.3694874E-3,1.5674809E-1,-1.7353335E-1,-9.533357E-2,9.325608E-2,1.9940476E-1,3.192723E-1,2.3475885E-1,-2.9995928E-2,2.728034E-1,5.6664483E-3,1.7147206E-1,4.1659006E-1,1.1015566E-1,2.8832805E-1,6.442965E-2,1.06432095E-1,1.8179031E-2,4.3823063E-2,-1.0880937E-1,-2.0995258E-1,-1.07561484E-1,2.7935588E-1,1.6434986E-2,-9.433293E-4,1.00377634E-1,-2.634636E-1,-1.6035101E-1,-2.7834406E-1,-3.19916E-1,6.761622E-2,-5.98508E-2,3.8044523E-2,1.9792603E-1,-7.2738975E-2,4.8114695E-3,1.7597E-1,-1.22943245E-1],"split_indices":[4,5,5,9,9,1,9,9,9,9,5,0,9,0,1,8,1,9,9,9,1,8,9,2,2,0,2,1,5,2,1,0,4,8,8,9,1,8,2,0,1,9,9,9,9,9,8,4,4,0,9,9,9,5,9,2,9,0,0,0,4,2,9,0,0,0,0,0,0,0,0,0,0,0,0,0,0,0,0,0,0,0,0,0,0,0,0,0,0,0,0,0,0,0,0,0,0,0,0,0,0,0,0,0,0,0,0,0,0,0,0,0,0,0,0,0,0,0,0,0,0],"split_type":[0,0,0,0,0,0,0,0,0,0,0,0,0,0,0,0,0,0,0,0,0,0,0,0,0,0,0,0,0,0,0,0,0,0,0,0,0,0,0,0,0,0,0,0,0,0,0,0,0,0,0,0,0,0,0,0,0,0,0,0,0,0,0,0,0,0,0,0,0,0,0,0,0,0,0,0,0,0,0,0,0,0,0,0,0,0,0,0,0,0,0,0,0,0,0,0,0,0,0,0,0,0,0,0,0,0,0,0,0,0,0,0,0,0,0,0,0,0,0,0,0],"sum_hessian":[1.9308E4,1.088E4,8.428E3,3.366E3,7.514E3,3.936E3,4.492E3,1.149E3,2.217E3,3.903E3,3.611E3,8.81E2,3.055E3,4.238E3,2.54E2,1.44E2,1.005E3,1.136E3,1.081E3,9.24E2,2.979E3,2.357E3,1.254E3,5.6E1,8.25E2,2.603E3,4.52E2,3.701E3,5.37E2,2.1E1,2.33E2,1.14E2,3E1,6.29E2,3.76E2,9.86E2,1.5E2,3E2,7.81E2,3.01E2,6.23E2,1.34E2,2.845E3,1.173E3,1.184E3,3.53E2,9.01E2,4.7E1,9E0,2.3E1,8.02E2,8.65E2,1.738E3,8.3E1,3.69E2,6.23E2,3.078E3,6.2E1,4.75E2,9E0,1.2E1,1.9E2,4.3E1,7.2E1,4.2E1,2.6E1,4E0,3.23E2,3.06E2,1.98E2,1.78E2,5.04E2,4.82E2,2.4E1,1.26E2,1.57E2,1.43E2,5.88E2,1.93E2,1.51E2,1.5E2,3.19E2,3.04E2,2.6E1,1.08E2,1.186E3,1.659E3,3.78E2,7.95E2,7.26E2,4.58E2,1.18E2,2.35E2,7.63E2,1.38E2,4.5E1,2E0,5E0,4E0,4.58E2,3.44E2,3.84E2,4.81E2,7.07E2,1.031E3,5.2E1,3.1E1,2.09E2,1.6E2,2.92E2,3.31E2,2.643E3,4.35E2,8E0,1E0,2E0,1E1,1.58E2,3.2E1,2.1E1,2.2E1],"tree_param":{"num_deleted":"0","num_feature":"10","num_nodes":"121","size_leaf_vector":"1"}},{"base_weights":[1.1351124E-2,2.2915292E0,-2.901038E0,5.016602E0,1.0119395E0,-2.8977862E-1,-4.509381E0,8.902887E0,4.321216E0,2.1642919E0,3.1343153E-1,1.9981651E0,-1.1212415E0,-2.90375E0,-5.0127196E0,1.1240268E1,7.211688E0,5.3363094E0,2.8008478E0,-1.8431237E-1,2.5088837E0,-1.7420591E-1,2.8531961E0,7.1233816E0,1.6208591E0,-2.0687526E-1,-1.9378893E0,4.7862568E-1,-3.1429641E0,-5.20496E0,-3.9355469E0,6.2903595E-1,5.350975E-1,1.6158473E0,7.743261E0,9.636423E0,5.050333E0,5.1650143E0,2.5287526E0,5.237478E0,-1.1023866E0,4.783611E0,2.2589777E0,2.320955E0,-5.414242E-1,5.476345E0,8.6897155E-3,7.3791933E0,-7.816391E-2,3.1975162E-1,1.4912803E0,3.276493E0,-5.133353E-1,-2.3254423E0,-9.345916E-1,4.806844E0,2.142602E-2,-1.3624532E0,-3.4696217E0,-3.0240557E0,-5.3125005E0,-2.2201736E-1,-1.8829177E-1,3.8653764E-1,-2.2625953E-3,4.0460524E-1,2.4840331E-1,9.611894E-2,4.9555156E-1,2.1905348E-2,2.8005973E-1,3.4875664E-1,6.6132285E-2,-2.0899473E-2,1.4594264E-1,6.547304E-2,3.552551E-1,1.0944309E-1,-9.1489874E-2,1.178404E-1,2.53985E-1,1.5145965E-1,5.808856E-2,8.4223665E-2,2.8806168E-1,8.455434E-2,-4.260607E-2,4.137311E-1,2.0277968E-1,6.202835E-2,-8.20634E-2,3.7647727E-1,1.0648382E-1,1.5930519E-2,-2.4292812E-2,3.866676E-2,1.19722724E-1,2.8314617E-1,2.3927465E-2,-4.206906E-2,1.0969024E-1,-1.2867658E-1,3.4410178E-3,2.5391122E-2,-9.799179E-2,3.584665E-1,3.1351287E-2,-1.3323726E-2,2.1202444E-1,-9.64512E-2,9.626841E-3,-1.8311337E-1,-3.306779E-2,-3.3183042E-3,-1.6404963E-1,-1.8251073E-1,-2.6832503E-1],"categories":[],"categories_nodes":[],"categories_segments":[],"categories_sizes":[],"default_left":[0,0,0,0,0,0,0,0,0,0,0,0,0,0,0,0,0,0,0,0,0,0,0,0,0,0,0,0,0,0,0,0,0,0,0,0,0,0,0,0,0,0,0,0,0,0,0,0,0,0,0,0,0,0,0,0,0,0,0,0,0,0,0,0,0,0,0,0,0,0,0,0,0,0,0,0,0,0,0,0,0,0,0,0,0,0,0,0,0,0,0,0,0,0,0,0,0,0,0,0,0,0,0,0,0,0,0,0,0,0,0,0,0,0,0,0,0],"id":8,"left_children":[1,3,5,7,9,11,13,15,17,19,21,23,25,27,29,31,33,35,37,39,41,43,45,47,49,51,53,55,57,59,61,-1,-1,63,65,67,69,71,73,75,77,79,81,83,85,87,89,91,93,-1,95,97,99,101,103,105,107,109,111,113,115,-1,-1,-1,-1,-1,-1,-1,-1,-1,-1,-1,-1,-1,-1,-1,-1,-1,-1,-1,-1,-1,-1,-1,-1,-1,-1,-1,-1,-1,-1,-1,-1,-1,-1,-1,-1,-1,-1,-1,-1,-1,-1,-1,-1,-1,-1,-1,-1,-1,-1,-1,-1,-1,-1,-1,-1],"loss_changes":[1.2866477E5,3.788728E4,3.5730117E4,9.34318E3,5.952316E3,6.1733447E3,4.2396953E3,1.9963555E3,4.5323867E3,2.2594785E3,5.7052236E3,1.6602949E3,1.7765669E3,1.02044336E3,8.083594E2,2.10625E1,9.0272754E2,2.1215703E3,7.465244E2,1.7873431E3,1.3721396E3,3.5424573E3,5.5358857E3,1.0999878E2,4.8891016E2,1.2012903E3,4.8626123E2,1.6563843E2,6.787715E2,7.798203E2,3.4801758E1,0E0,0E0,2.855274E2,2.305293E2,2.1066309E2,4.209418E3,8.3151685E2,1.2222656E3,3.713296E2,7.3895483E2,1.5973633E2,1.8510234E3,1.0756296E3,2.3389072E3,1.4998115E3,7.276146E2,2.798706E1,6.56809E-1,0E0,5.0814575E2,6.042918E2,9.199708E2,5.385825E2,5.2168726E2,7.3723114E1,9.5057E1,1.6265125E2,5.343594E2,1.2255786E2,2.6998438E2,0E0,0E0,0E0,0E0,0E0,0E0,0E0,0E0,0E0,0E0,0E0,0E0,0E0,0E0,0E0,0E0,0E0,0E0,0E0,0E0,0E0,0E0,0E0,0E0,0E0,0E0,0E0,0E0,0E0,0E0,0E0,0E0,0E0,0E0,0E0,0E0,0E0,0E0,0E0,0E0,0E0,0E0,0E0,0E0,0E0,0E0,0E0,0E0,0E0,0E0,0E0,0E0,0E0,0E0,0E0,0E0],"parents":[2147483647,0,0,1,1,2,2,3,3,4,4,5,5,6,6,7,7,8,8,9,9,10,10,11,11,12,12,13,13,14,14,15,15,16,16,17,17,18,18,19,19,20,20,21,21,22,22,23,23,24,24,25,25,26,26,27,27,28,28,29,29,30,30,33,33,34,34,35,35,36,36,37,37,38,38,39,39,40,40,41,41,42,42,43,43,44,44,45,45,46,46,47,47,48,48,50,50,51,51,52,52,53,53,54,54,55,55,56,56,57,57,58,58,59,59,60,60],"right_children":[2,4,6,8,10,12,14,16,18,20,22,24,26,28,30,32,34,36,38,40,42,44,46,48,50,52,54,56,58,60,62,-1,-1,64,66,68,70,72,74,76,78,80,82,84,86,88,90,92,94,-1,96,98,100,102,104,106,108,110,112,114,116,-1,-1,-1,-1,-1,-1,-1,-1,-1,-1,-1,-1,-1,-1,-1,-1,-1,-1,-1,-1,-1,-1,-1,-1,-1,-1,-1,-1,-1,-1,-1,-1,-1,-1,-1,-1,-1,-1,-1,-1,-1,-1,-1,-1,-1,-1,-1,-1,-1,-1,-1,-1,-1,-1,-1,-1],"split_conditions":[1.0459553E-1,2.5982738E-2,1.539886E-2,1.0052748E-3,1.1017919E-2,1.1858553E-1,1.1205864E-1,1.2791693E-2,5.7827193E-2,3.7801266E-4,2.636671E-3,4.495127E-2,1.06529E-2,1.8554215E-1,6.421314E0,6.2453747E-3,5.707833E-2,4.1148E-2,4.1148E-2,1.763227E-3,3.481421E-3,3.3134937E-2,4.2849727E-2,3.7286147E-3,5.431166E-4,3.481421E-3,3.3217046E-2,1.0894245E-1,7.6299906E-4,1.0925323E0,2.868929E-1,6.2903595E-1,5.350975E-1,1.9001415E-4,4.773736E-4,1.943599E-2,7.69459E-2,5.1398862E-2,1.8191338E-4,1.8900633E-4,1.0796763E-1,1.7268705E-1,6.1738104E-2,2.1011174E-2,2.132081E-2,1.6034916E-2,6.688826E-2,1.6628301E-1,3.7862223E-2,3.1975162E-1,6.1099627E-3,6.4617395E-4,6.726377E-1,9.767765E-1,1.2614131E-3,3.0213058E-2,1.2614131E-3,2.2477984E-2,1.2722172E0,8.933544E-4,3.376555E-2,-2.2201736E-1,-1.8829177E-1,3.8653764E-1,-2.2625953E-3,4.0460524E-1,2.4840331E-1,9.611894E-2,4.9555156E-1,2.1905348E-2,2.8005973E-1,3.4875664E-1,6.6132285E-2,-2.0899473E-2,1.4594264E-1,6.547304E-2,3.552551E-1,1.0944309E-1,-9.1489874E-2,1.178404E-1,2.53985E-1,1.5145965E-1,5.808856E-2,8.4223665E-2,2.8806168E-1,8.455434E-2,-4.260607E-2,4.137311E-1,2.0277968E-1,6.202835E-2,-8.20634E-2,3.7647727E-1,1.0648382E-1,1.5930519E-2,-2.4292812E-2,3.866676E-2,1.19722724E-1,2.8314617E-1,2.3927465E-2,-4.206906E-2,1.0969024E-1,-1.2867658E-1,3.4410178E-3,2.5391122E-2,-9.799179E-2,3.584665E-1,3.1351287E-2,-1.3323726E-2,2.1202444E-1,-9.64512E-2,9.626841E-3,-1.8311337E-1,-3.306779E-2,-3.3183042E-3,-1.6404963E-1,-1.8251073E-1,-2.6832503E-1],"split_indices":[4,5,7,2,7,1,5,5,4,6,6,0,7,0,0,5,0,1,1,2,2,5,2,2,2,2,2,4,6,1,5,0,0,2,6,4,0,0,6,6,1,0,4,7,4,2,2,4,0,0,2,6,1,0,6,5,6,7,0,6,2,0,0,0,0,0,0,0,0,0,0,0,0,0,0,0,0,0,0,0,0,0,0,0,0,0,0,0,0,0,0,0,0,0,0,0,0,0,0,0,0,0,0,0,0,0,0,0,0,0,0,0,0,0,0,0,0],"split_type":[0,0,0,0,0,0,0,0,0,0,0,0,0,0,0,0,0,0,0,0,0,0,0,0,0,0,0,0,0,0,0,0,0,0,0,0,0,0,0,0,0,0,0,0,0,0,0,0,0,0,0,0,0,0,0,0,0,0,0,0,0,0,0,0,0,0,0,0,0,0,0,0,0,0,0,0,0,0,0,0,0,0,0,0,0,0,0,0,0,0,0,0,0,0,0,0,0,0,0,0,0,0,0,0,0,0,0,0,0,0,0,0,0,0,0,0,0],"sum_hessian":[1.9373E4,1.0866E4,8.507E3,3.471E3,7.395E3,3.243E3,5.264E3,5.25E2,2.946E3,2.79E3,4.605E3,8.64E2,2.379E3,1.258E3,4.006E3,2.18E2,3.07E2,1.765E3,1.181E3,3.57E2,2.433E3,3.864E3,7.41E2,5.8E1,8.06E2,1.123E3,1.256E3,8.3E1,1.175E3,3.396E3,6.1E2,5.6E1,1.62E2,2.7E1,2.8E2,1.08E2,1.657E3,1.2E2,1.061E3,5.1E1,3.06E2,2.39E2,2.194E3,4.95E2,3.369E3,3.85E2,3.56E2,5.6E1,2E0,2E1,7.86E2,9E1,1.033E3,9.05E2,3.51E2,7E0,7.6E1,1.83E2,9.92E2,1.61E2,3.235E3,1.47E2,4.63E2,5E0,2.2E1,2.47E2,3.3E1,4E0,1.04E2,1.77E2,1.48E3,8.1E1,3.9E1,1.24E2,9.37E2,1.7E1,3.4E1,5.5E1,2.51E2,2.7E1,2.12E2,1.288E3,9.06E2,4.19E2,7.6E1,4.11E2,2.958E3,1.28E2,2.57E2,2.04E2,1.52E2,5.4E1,2E0,1E0,1E0,4.39E2,3.47E2,4.8E1,4.2E1,9.22E2,1.11E2,8.2E2,8.5E1,1.46E2,2.05E2,4E0,3E0,7.2E1,4E0,1.34E2,4.9E1,9.28E2,6.4E1,1.3E1,1.48E2,1.04E2,3.131E3],"tree_param":{"num_deleted":"0","num_feature":"10","num_nodes":"117","size_leaf_vector":"1"}},{"base_weights":[-3.2059704E-3,2.157586E0,-2.7527866E0,4.8156347E0,9.608962E-1,-9.5740724E-1,-4.6901555E0,7.657121E0,3.3704433E0,-1.0323305E0,3.1646974E0,1.0929586E0,-1.976755E0,-4.841605E0,-6.6701365E-1,1.3480904E0,8.50024E0,6.022636E-2,6.7132616E0,2.891044E0,-2.2389114E0,4.459496E0,1.8311055E0,2.247132E0,-2.3452675E-1,-2.6533163E0,8.9327073E-1,-5.0611553E0,-3.8085835E0,2.0892866E0,-9.8948616E-1,7.466607E-2,6.435319E0,9.602371E0,6.578089E0,3.7864622E-1,-1.8883321E0,4.32168E0,7.66553E0,-1.7802328E0,5.180816E0,2.7827585E0,-2.4631755E0,2.9265087E0,5.344153E0,2.933229E0,5.5308676E-1,3.061347E-1,5.920689E0,-9.1292727E-1,3.6509676E0,-3.778594E0,-1.9955184E0,4.412285E-1,2.5650837E0,-3.841265E0,-5.182678E0,-4.2360764E0,-1.7880177E-1,5.8273696E-3,2.3556387E0,3.0558395E-1,-1.6201309E0,1.5004575E-1,-7.040771E-2,4.8587486E-2,4.1469905E-1,4.3872318E-1,5.214185E-1,2.6020774E-1,4.11815E-1,-3.4316044E-2,7.371431E-2,8.897013E-2,-1.1574166E-1,3.5996053E-1,1.847273E-1,4.337971E-1,2.6827818E-1,3.5890233E-2,-1.6588734E-1,3.3212432E-1,1.9013058E-1,7.9100505E-2,2.0894335E-1,-1.0583993E-1,-2.0634525E-1,2.78106E-1,8.098474E-2,3.5710093E-1,2.1401727E-1,1.8977173E-1,6.988483E-2,6.204109E-3,1.6321161E-1,-4.763898E-2,1.5568994E-1,3.2929003E-1,1.5231253E-1,2.3056983E-3,-8.4148966E-2,2.7739426E-1,7.826078E-2,-1.3750659E-1,-2.3329616E-1,5.928887E-2,-1.708539E-1,1.4577468E-2,2.0976971E-1,4.42163E-2,1.8359588E-1,-2.7956274E-1,-1.459925E-1,-2.9195973E-1,-2.5369242E-1,-2.0352232E-1,-2.5160447E-1,4.99721E-2,1.3940866E-1,1.1782904E-1,-7.915312E-2,-3.1003785E-1,-6.1133303E-2],"categories":[],"categories_nodes":[],"categories_segments":[],"categories_sizes":[],"default_left":[0,0,0,0,0,0,0,0,0,0,0,0,0,0,0,0,0,0,0,0,0,0,0,0,0,0,0,0,0,0,0,0,0,0,0,0,0,0,0,0,0,0,0,0,0,0,0,0,0,0,0,0,0,0,0,0,0,0,0,0,0,0,0,0,0,0,0,0,0,0,0,0,0,0,0,0,0,0,0,0,0,0,0,0,0,0,0,0,0,0,0,0,0,0,0,0,0,0,0,0,0,0,0,0,0,0,0,0,0,0,0,0,0,0,0,0,0,0,0,0,0,0,0],"id":9,"left_children":[1,3,5,7,9,11,13,15,17,19,21,23,25,27,29,31,33,35,37,39,41,43,45,47,49,51,53,55,57,59,61,63,65,67,69,71,73,75,77,79,81,83,85,87,89,91,93,95,97,99,101,103,105,107,109,111,113,115,-1,-1,117,119,121,-1,-1,-1,-1,-1,-1,-1,-1,-1,-1,-1,-1,-1,-1,-1,-1,-1,-1,-1,-1,-1,-1,-1,-1,-1,-1,-1,-1,-1,-1,-1,-1,-1,-1,-1,-1,-1,-1,-1,-1,-1,-1,-1,-1,-1,-1,-1,-1,-1,-1,-1,-1,-1,-1,-1,-1,-1,-1,-1,-1],"loss_changes":[1.151538E5,3.4516668E4,2.9661465E4,1.3807867E4,3.2882656E4,9.256928E3,2.4955781E3,6.024914E3,2.4730205E4,1.8615246E4,6.129742E3,2.2545186E3,5.7462393E3,8.76375E2,1.35282E2,8.7342566E2,2.0557969E3,6.979608E2,2.4981758E3,9.90351E3,3.393249E3,2.4287031E3,2.467189E3,5.609161E3,1.8086654E3,1.7639316E3,4.2555505E2,4.6202344E2,5.336133E1,7.88533E0,1.10884964E2,4.7734705E2,2.6519666E2,3.4014062E2,7.941963E2,1.129406E3,2.5133087E2,5.47979E2,1.7972305E3,1.1740756E3,1.2246895E3,2.090653E2,1.6497422E3,2.2703687E3,2.152457E3,1.2400083E3,9.448515E2,1.8270406E3,4.9899023E2,4.3153207E2,3.941682E2,7.913252E2,6.846667E3,2.4894461E2,2.1953558E2,4.6495068E2,1.8069531E2,1.0249023E1,0E0,0E0,5.047043E0,1.7812032E2,1.5735426E2,0E0,0E0,0E0,0E0,0E0,0E0,0E0,0E0,0E0,0E0,0E0,0E0,0E0,0E0,0E0,0E0,0E0,0E0,0E0,0E0,0E0,0E0,0E0,0E0,0E0,0E0,0E0,0E0,0E0,0E0,0E0,0E0,0E0,0E0,0E0,0E0,0E0,0E0,0E0,0E0,0E0,0E0,0E0,0E0,0E0,0E0,0E0,0E0,0E0,0E0,0E0,0E0,0E0,0E0,0E0,0E0,0E0,0E0,0E0,0E0],"parents":[2147483647,0,0,1,1,2,2,3,3,4,4,5,5,6,6,7,7,8,8,9,9,10,10,11,11,12,12,13,13,14,14,15,15,16,16,17,17,18,18,19,19,20,20,21,21,22,22,23,23,24,24,25,25,26,26,27,27,28,28,29,29,30,30,31,31,32,32,33,33,34,34,35,35,36,36,37,37,38,38,39,39,40,40,41,41,42,42,43,43,44,44,45,45,46,46,47,47,48,48,49,49,50,50,51,51,52,52,53,53,54,54,55,55,56,56,57,57,60,60,61,61,62,62],"right_children":[2,4,6,8,10,12,14,16,18,20,22,24,26,28,30,32,34,36,38,40,42,44,46,48,50,52,54,56,58,60,62,64,66,68,70,72,74,76,78,80,82,84,86,88,90,92,94,96,98,100,102,104,106,108,110,112,114,116,-1,-1,118,120,122,-1,-1,-1,-1,-1,-1,-1,-1,-1,-1,-1,-1,-1,-1,-1,-1,-1,-1,-1,-1,-1,-1,-1,-1,-1,-1,-1,-1,-1,-1,-1,-1,-1,-1,-1,-1,-1,-1,-1,-1,-1,-1,-1,-1,-1,-1,-1,-1,-1,-1,-1,-1,-1,-1,-1,-1,-1,-1,-1,-1],"split_conditions":[1.0459553E-1,2.5384247E-2,1.1205864E-1,3E0,6E0,1.9885036E-1,6E0,2E0,6E0,3E0,6.273258E-2,3E0,6E0,6.31039E0,7.7878296E-1,2.5E1,8.875525E-2,5E0,7E0,2E0,9.9184975E-2,7E0,3.9277665E-2,2E0,6E0,2E0,2E1,1.3097379E0,6.685659E0,3.9211735E-1,1.2470931E-1,7.3966265E-2,5.01113E-3,2E1,1.5E1,4E0,3.225112E-2,2.2131745E-3,2.7365324E-1,2.3123072E-1,2.2748415E-1,2E1,5E0,6.387921E-3,2.4632672E-2,8.8437915E-2,2E1,2.5E1,5.964637E-4,8.875525E-2,3.481421E-3,3.431727E-1,3E0,3.1719804E-3,2.4319962E-1,7.048497E-2,1.4157422E-1,3.491333E-1,-1.7880177E-1,5.8273696E-3,3.9301834E-1,1.1E1,7.1881614E-3,1.5004575E-1,-7.040771E-2,4.8587486E-2,4.1469905E-1,4.3872318E-1,5.214185E-1,2.6020774E-1,4.11815E-1,-3.4316044E-2,7.371431E-2,8.897013E-2,-1.1574166E-1,3.5996053E-1,1.847273E-1,4.337971E-1,2.6827818E-1,3.5890233E-2,-1.6588734E-1,3.3212432E-1,1.9013058E-1,7.9100505E-2,2.0894335E-1,-1.0583993E-1,-2.0634525E-1,2.78106E-1,8.098474E-2,3.5710093E-1,2.1401727E-1,1.8977173E-1,6.988483E-2,6.204109E-3,1.6321161E-1,-4.763898E-2,1.5568994E-1,3.2929003E-1,1.5231253E-1,2.3056983E-3,-8.4148966E-2,2.7739426E-1,7.826078E-2,-1.3750659E-1,-2.3329616E-1,5.928887E-2,-1.708539E-1,1.4577468E-2,2.0976971E-1,4.42163E-2,1.8359588E-1,-2.7956274E-1,-1.459925E-1,-2.9195973E-1,-2.5369242E-1,-2.0352232E-1,-2.5160447E-1,4.99721E-2,1.3940866E-1,1.1782904E-1,-7.915312E-2,-3.1003785E-1,-6.1133303E-2],"split_indices":[4,5,5,9,9,3,9,9,9,9,5,9,9,3,1,8,1,9,9,9,1,9,2,9,9,9,8,1,3,1,5,1,2,8,8,9,1,2,3,3,1,8,9,2,2,5,8,8,6,1,2,1,9,6,1,2,2,2,0,0,3,9,2,0,0,0,0,0,0,0,0,0,0,0,0,0,0,0,0,0,0,0,0,0,0,0,0,0,0,0,0,0,0,0,0,0,0,0,0,0,0,0,0,0,0,0,0,0,0,0,0,0,0,0,0,0,0,0,0,0,0,0,0],"split_type":[0,0,0,0,0,0,0,0,0,0,0,0,0,0,0,0,0,0,0,0,0,0,0,0,0,0,0,0,0,0,0,0,0,0,0,0,0,0,0,0,0,0,0,0,0,0,0,0,0,0,0,0,0,0,0,0,0,0,0,0,0,0,0,0,0,0,0,0,0,0,0,0,0,0,0,0,0,0,0,0,0,0,0,0,0,0,0,0,0,0,0,0,0,0,0,0,0,0,0,0,0,0,0,0,0,0,0,0,0,0,0,0,0,0,0,0,0,0,0,0,0,0,0],"sum_hessian":[1.938E4,1.0852E4,8.528E3,3.368E3,7.484E3,4.427E3,4.101E3,1.134E3,2.234E3,3.93E3,3.554E3,1.47E3,2.957E3,3.952E3,1.49E2,1.34E2,1E3,1.123E3,1.111E3,9.24E2,3.006E3,1.802E3,1.752E3,7.86E2,6.84E2,2.393E3,5.64E2,3.256E3,6.96E2,1.5E1,1.34E2,1.08E2,2.6E1,6.33E2,3.67E2,9.66E2,1.57E2,3.18E2,7.93E2,3.04E2,6.2E2,1.28E2,2.878E3,6.61E2,1.141E3,9.4E2,8.12E2,5.15E2,2.71E2,5.83E2,1.01E2,8.81E2,1.512E3,4.45E2,1.19E2,2.98E2,2.958E3,2.39E2,4.57E2,2E0,1.3E1,4.4E1,9E1,3.6E1,7.2E1,7E0,1.9E1,3.22E2,3.11E2,2.03E2,1.64E2,4.9E2,4.76E2,1.6E1,1.41E2,5.5E1,2.63E2,5.49E2,2.44E2,1.16E2,1.88E2,2.99E2,3.21E2,7E1,5.8E1,2.384E3,4.94E2,2.18E2,4.43E2,4.22E2,7.19E2,6.01E2,3.39E2,7.02E2,1.1E2,3.56E2,1.59E2,2.19E2,5.2E1,2.6E2,3.23E2,5.2E1,4.9E1,4.1E2,4.71E2,4.67E2,1.045E3,4.29E2,1.6E1,4.8E1,7.1E1,1.01E2,1.97E2,4.13E2,2.545E3,2.03E2,3.6E1,4E0,9E0,2.1E1,2.3E1,6E0,8.4E1],"tree_param":{"num_deleted":"0","num_feature":"10","num_nodes":"123","size_leaf_vector":"1"}},{"base_weights":[8.088946E-3,1.7939382E0,-2.9624953E0,4.3232217E0,8.2399374E-1,-4.711562E-1,-4.1847854E0,6.791374E0,2.7121167E0,-1.241459E0,3.0958178E0,1.683496E0,-1.1935753E0,-4.346395E0,-5.204567E-1,1.0627065E0,8.199498E0,2.788406E-1,6.2598166E0,1.9443887E0,-2.2793899E0,2.302509E0,5.4949207E0,6.0144076E0,1.3050354E0,-1.5794196E0,1.2487948E0,-2.1662116E0,-4.477652E0,1.138399E0,-1.3588585E0,-3.3108103E-1,3.2184668E0,7.2167077E0,9.424435E0,-6.497903E-1,1.4572179E0,4.126387E0,8.357358E0,-2.3225505E0,4.3110533E0,-1.7833036E0,-3.8197398E0,3.3574293E0,7.7474934E-1,6.477001E0,4.1404653E0,6.21283E0,4.668942E-2,2.1894488E0,2.0926507E-2,-6.0702497E-1,-2.7411523E0,4.9690866E0,6.046077E-1,1.2196897E-2,-2.784665E0,-3.5793142E0,-4.6331844E0,6.536786E-1,2.1699922E-1,-1.5969429E0,3.889558E-2,7.235078E-2,-7.2115116E-2,2.9445693E-1,7.825053E-2,4.109497E-1,2.8845486E-1,5.1084185E-1,4.4781318E-1,6.895533E-2,-5.7799816E-2,1.2952001E-1,-6.168575E-2,3.1033587E-1,1.602797E-1,3.4855735E-1,4.4686294E-1,-1.5733187E-1,1.2599814E-1,2.4471092E-1,1.1285732E-1,-6.556726E-2,-1.7515941E-1,-2.3070179E-1,-1.601217E-1,3.664022E-2,2.4589553E-1,-1.603855E-3,8.326976E-2,2.478153E-1,3.7390453E-1,4.3984142E-1,1.9479017E-1,3.167458E-1,1.5474615E-2,3.044039E-2,2.5952956E-1,2.2786386E-1,-1.837635E-2,-1.1827947E-1,9.16773E-2,-1.263263E-1,-2.1378823E-1,1.8839924E-1,3.3982882E-1,8.688112E-2,-1.5499531E-2,-1.537677E-1,3.466071E-2,-1.2536639E-1,-2.0881914E-1,-1.5927194E-1,-2.3406874E-1,-2.4332133E-1,-1.8318747E-1,5.159619E-2,-5.9236176E-2,-3.941626E-2,-9.8496616E-2,-1.10492624E-1,2.7100606E-2],"categories":[],"categories_nodes":[],"categories_segments":[],"categories_sizes":[],"default_left":[0,0,0,0,0,0,0,0,0,0,0,0,0,0,0,0,0,0,0,0,0,0,0,0,0,0,0,0,0,0,0,0,0,0,0,0,0,0,0,0,0,0,0,0,0,0,0,0,0,0,0,0,0,0,0,0,0,0,0,0,0,0,0,0,0,0,0,0,0,0,0,0,0,0,0,0,0,0,0,0,0,0,0,0,0,0,0,0,0,0,0,0,0,0,0,0,0,0,0,0,0,0,0,0,0,0,0,0,0,0,0,0,0,0,0,0,0,0,0,0,0,0,0],"id":10,"left_children":[1,3,5,7,9,11,13,15,17,19,21,23,25,27,29,31,33,35,37,39,41,43,45,47,49,51,53,55,57,59,61,63,65,67,69,71,73,75,77,79,81,83,85,87,89,91,93,95,-1,97,99,101,103,105,107,109,111,113,115,117,-1,119,121,-1,-1,-1,-1,-1,-1,-1,-1,-1,-1,-1,-1,-1,-1,-1,-1,-1,-1,-1,-1,-1,-1,-1,-1,-1,-1,-1,-1,-1,-1,-1,-1,-1,-1,-1,-1,-1,-1,-1,-1,-1,-1,-1,-1,-1,-1,-1,-1,-1,-1,-1,-1,-1,-1,-1,-1,-1,-1,-1,-1],"loss_changes":[1.0263603E5,2.963871E4,2.2117457E4,1.3297777E4,4.0991664E4,3.7252563E3,2.8829922E3,1.0654504E4,1.7504375E4,1.5135877E4,7.904E3,9.7650586E2,1.690741E3,1.3251641E3,2.8946198E2,7.8857825E2,1.2076094E3,1.318538E3,3.6561035E3,1.1370928E4,2.630461E3,5.0382734E3,1.3462031E3,4.187317E1,6.289017E2,1.746719E3,5.8359644E2,3.600254E2,5.975078E2,1.0529485E2,4.614209E1,3.1822394E2,4.448694E2,8.115801E2,8.056641E1,6.937969E2,1.6225192E3,7.6645557E2,2.6970898E2,1.6122334E3,8.554219E2,2.1159316E3,3.9631445E2,7.572834E3,9.193017E2,8.7053516E2,4.6230615E2,3.052771E1,0E0,1.552203E3,4.0210452E2,3.6267551E3,2.2072168E2,5.2354248E1,2.1829465E2,1.280542E2,6.914282E1,2.6818555E2,8.2878906E2,4.432E1,0E0,3.376068E1,2.479001E1,0E0,0E0,0E0,0E0,0E0,0E0,0E0,0E0,0E0,0E0,0E0,0E0,0E0,0E0,0E0,0E0,0E0,0E0,0E0,0E0,0E0,0E0,0E0,0E0,0E0,0E0,0E0,0E0,0E0,0E0,0E0,0E0,0E0,0E0,0E0,0E0,0E0,0E0,0E0,0E0,0E0,0E0,0E0,0E0,0E0,0E0,0E0,0E0,0E0,0E0,0E0,0E0,0E0,0E0,0E0,0E0,0E0,0E0,0E0,0E0],"parents":[2147483647,0,0,1,1,2,2,3,3,4,4,5,5,6,6,7,7,8,8,9,9,10,10,11,11,12,12,13,13,14,14,15,15,16,16,17,17,18,18,19,19,20,20,21,21,22,22,23,23,24,24,25,25,26,26,27,27,28,28,29,29,30,30,31,31,32,32,33,33,34,34,35,35,36,36,37,37,38,38,39,39,40,40,41,41,42,42,43,43,44,44,45,45,46,46,47,47,49,49,50,50,51,51,52,52,53,53,54,54,55,55,56,56,57,57,58,58,59,59,61,61,62,62],"right_children":[2,4,6,8,10,12,14,16,18,20,22,24,26,28,30,32,34,36,38,40,42,44,46,48,50,52,54,56,58,60,62,64,66,68,70,72,74,76,78,80,82,84,86,88,90,92,94,96,-1,98,100,102,104,106,108,110,112,114,116,118,-1,120,122,-1,-1,-1,-1,-1,-1,-1,-1,-1,-1,-1,-1,-1,-1,-1,-1,-1,-1,-1,-1,-1,-1,-1,-1,-1,-1,-1,-1,-1,-1,-1,-1,-1,-1,-1,-1,-1,-1,-1,-1,-1,-1,-1,-1,-1,-1,-1,-1,-1,-1,-1,-1,-1,-1,-1,-1,-1,-1,-1,-1],"split_conditions":[1.1747183E-1,1.4175467E-1,1.5178323E-2,3E0,6E0,1.1858553E-1,6E0,2E0,6E0,3E0,2E1,4.495127E-2,6E0,4.0861636E-1,5.191416E-1,2E1,2E1,4E0,7E0,2E0,5.582202E-1,1.1E1,1.1E1,1.6628301E-1,3E0,3E0,3.960627E-3,1.8089011E-1,2.048862E-2,4.5593706E-1,3.145027E-2,8.764876E-2,9.2005864E-2,8.875525E-2,5.707833E-2,5.409943E-2,5E0,2.5842555E-3,1.5E1,2.5E1,2.2577818E-2,5E0,4E0,7E0,1.4E1,7E0,4.0861636E-1,3.7286147E-3,4.668942E-2,2E0,1.0052748E-3,2E0,4.5593706E-1,5.475425E-1,1.0208666E-2,5.8303062E-2,4.9211215E-2,1.4225999E0,6.204776E0,6.020241E-1,2.1699922E-1,1.0651166E0,1.5155125E-2,7.235078E-2,-7.2115116E-2,2.9445693E-1,7.825053E-2,4.109497E-1,2.8845486E-1,5.1084185E-1,4.4781318E-1,6.895533E-2,-5.7799816E-2,1.2952001E-1,-6.168575E-2,3.1033587E-1,1.602797E-1,3.4855735E-1,4.4686294E-1,-1.5733187E-1,1.2599814E-1,2.4471092E-1,1.1285732E-1,-6.556726E-2,-1.7515941E-1,-2.3070179E-1,-1.601217E-1,3.664022E-2,2.4589553E-1,-1.603855E-3,8.326976E-2,2.478153E-1,3.7390453E-1,4.3984142E-1,1.9479017E-1,3.167458E-1,1.5474615E-2,3.044039E-2,2.5952956E-1,2.2786386E-1,-1.837635E-2,-1.1827947E-1,9.16773E-2,-1.263263E-1,-2.1378823E-1,1.8839924E-1,3.3982882E-1,8.688112E-2,-1.5499531E-2,-1.537677E-1,3.466071E-2,-1.2536639E-1,-2.0881914E-1,-1.5927194E-1,-2.3406874E-1,-2.4332133E-1,-1.8318747E-1,5.159619E-2,-5.9236176E-2,-3.941626E-2,-9.8496616E-2,-1.10492624E-1,2.7100606E-2],"split_indices":[4,1,7,9,9,1,9,9,9,9,8,0,9,0,1,8,8,9,9,9,1,9,9,4,9,9,2,0,7,1,7,0,4,1,0,0,9,2,8,8,2,9,9,9,9,9,0,2,0,9,2,9,1,0,7,1,2,1,0,0,0,0,2,0,0,0,0,0,0,0,0,0,0,0,0,0,0,0,0,0,0,0,0,0,0,0,0,0,0,0,0,0,0,0,0,0,0,0,0,0,0,0,0,0,0,0,0,0,0,0,0,0,0,0,0,0,0,0,0,0,0,0,0],"split_type":[0,0,0,0,0,0,0,0,0,0,0,0,0,0,0,0,0,0,0,0,0,0,0,0,0,0,0,0,0,0,0,0,0,0,0,0,0,0,0,0,0,0,0,0,0,0,0,0,0,0,0,0,0,0,0,0,0,0,0,0,0,0,0,0,0,0,0,0,0,0,0,0,0,0,0,0,0,0,0,0,0,0,0,0,0,0,0,0,0,0,0,0,0,0,0,0,0,0,0,0,0,0,0,0,0,0,0,0,0,0,0,0,0,0,0,0,0,0,0,0,0,0,0],"sum_hessian":[1.9345E4,1.2082E4,7.263E3,3.348E3,8.734E3,2.391E3,4.872E3,1.321E3,2.027E3,4.575E3,4.159E3,6E2,1.791E3,4.666E3,2.06E2,2.61E2,1.06E3,1.203E3,8.24E2,1.124E3,3.451E3,3.127E3,1.032E3,4.7E1,5.53E2,1.547E3,2.44E2,2.66E2,4.4E3,6.9E1,1.37E2,1.59E2,1.02E2,5.92E2,4.68E2,6.73E2,5.3E2,4.1E2,4.14E2,4.01E2,7.23E2,2.612E3,8.39E2,1.849E3,1.278E3,5.96E2,4.36E2,4.5E1,2E0,3.27E2,2.26E2,8.43E2,7.04E2,3.5E1,2.09E2,5.9E1,2.07E2,6.53E2,3.747E3,6.1E1,8E0,1.17E2,2E1,6.1E1,9.8E1,3.8E1,6.4E1,3.47E2,2.45E2,1.66E2,3.02E2,1.34E2,5.39E2,3.73E2,1.57E2,1.24E2,2.86E2,1.26E2,2.88E2,3.43E2,5.8E1,5.62E2,1.61E2,2.051E3,5.61E2,3.64E2,4.75E2,6.9E2,1.159E3,6.71E2,6.07E2,2.39E2,3.57E2,2E1,4.16E2,4.4E1,1E0,2.15E2,1.12E2,1.7E1,2.09E2,4.9E2,3.53E2,6.2E2,8.4E1,2.3E1,1.2E1,9.3E1,1.16E2,1E1,4.9E1,1.75E2,3.2E1,4.84E2,1.69E2,3.017E3,7.3E2,5.1E1,1E1,3.8E1,7.9E1,3E0,1.7E1],"tree_param":{"num_deleted":"0","num_feature":"10","num_nodes":"123","size_leaf_vector":"1"}},{"base_weights":[-5.604816E-3,1.2680997E0,-3.8283145E0,8.314834E-2,3.594516E0,-4.311098E0,-3.9059207E-1,2.8963532E0,-1.4117132E0,5.4307237E0,2.6200433E0,-4.467898E0,-3.3588612E0,1.5920168E-1,-1.3432451E0,5.1686926E0,8.7701395E-2,7.33754E-4,-2.2293777E0,3.2763681E0,6.539454E0,1.9814347E0,4.4964395E0,-3.2728102E0,-4.6372466E0,-1.8983845E-1,-1.6117844E-1,-1.4681314E0,8.1952435E-1,2.904505E-1,-2.231872E0,4.5118943E-1,7.4400616E0,5.808008E-1,-1.2658256E0,-2.7742522E0,3.1230032E0,-1.7063658E0,-3.45422E0,2.2256E0,4.5517297E0,7.2836757E0,4.0560865E0,2.7277007E0,1.0269588E0,5.3092337E0,3.7210815E0,-5.072846E0,-2.6647143E0,-4.6019263E0,-6.8999176E0,-2.1625867E0,1.9361167E-1,3.9385126E0,-3.06909E-1,1.1145186E0,-1.2173326E0,-1.4542079E0,-2.8151343E0,-3.5595205E-2,8.825536E-2,4.1066504E-1,2.916777E-1,1.0815025E-3,1.1690184E-1,8.018192E-2,-7.557543E-2,-1.6583358E-1,5.636502E-2,2.0982149E-1,3.2916483E-2,-1.5236792E-1,-2.7115498E-2,-1.4070176E-1,-2.122824E-1,1.576141E-1,5.9643358E-2,2.7238956E-1,1.4897726E-1,3.1504962E-1,4.2989555E-1,1.8848382E-1,4.0999445E-1,6.753908E-2,2.855967E-1,4.2233146E-3,9.095935E-2,2.0073114E-1,3.5729188E-1,2.5296295E-1,1.6177423E-1,7.555765E-2,-2.6024017E-1,-2.2435473E-1,-1.05550304E-1,-2.646157E-1,-2.2685266E-1,-3.6020064E-1,-2.0594011E-1,-2.8181547E-1,-7.328466E-2,3.6320412E-1,1.7038763E-1,2.0052856E-2,-4.634634E-2,1.3210426E-2,1.15595214E-1,-1.4107495E-2,-7.861491E-2,-9.725054E-2,-2.5586193E-2,-1.5362494E-1,-2.1615697E-2],"categories":[],"categories_nodes":[],"categories_segments":[],"categories_sizes":[],"default_left":[0,0,0,0,0,0,0,0,0,0,0,0,0,0,0,0,0,0,0,0,0,0,0,0,0,0,0,0,0,0,0,0,0,0,0,0,0,0,0,0,0,0,0,0,0,0,0,0,0,0,0,0,0,0,0,0,0,0,0,0,0,0,0,0,0,0,0,0,0,0,0,0,0,0,0,0,0,0,0,0,0,0,0,0,0,0,0,0,0,0,0,0,0,0,0,0,0,0,0,0,0,0,0,0,0,0,0,0,0,0,0,0,0],"id":11,"left_children":[1,3,5,7,9,11,13,15,17,19,21,23,25,27,29,31,33,35,37,39,41,43,45,47,49,-1,-1,51,53,55,57,59,61,63,65,67,69,71,73,75,77,79,81,83,85,87,89,91,93,95,97,99,-1,101,103,105,107,109,111,-1,-1,-1,-1,-1,-1,-1,-1,-1,-1,-1,-1,-1,-1,-1,-1,-1,-1,-1,-1,-1,-1,-1,-1,-1,-1,-1,-1,-1,-1,-1,-1,-1,-1,-1,-1,-1,-1,-1,-1,-1,-1,-1,-1,-1,-1,-1,-1,-1,-1,-1,-1,-1,-1],"loss_changes":[9.442968E4,4.0100906E4,8.042297E3,4.0539625E4,8.7688125E3,6.1878125E2,3.1354236E2,2.1347518E4,7.270369E3,4.0405977E3,3.8357305E3,7.219297E2,2.2902832E1,4.0947296E2,3.1877472E2,1.9808238E4,9.997994E2,2.001446E4,2.5476914E3,7.6645557E2,2.0429766E3,1.7034785E3,4.9232812E2,4.8484326E2,2.2211719E2,0E0,0E0,4.1615387E2,9.5368494E2,9.826271E1,5.988794E1,9.213439E2,1.5009609E3,1.0786027E3,2.8440613E2,2.592166E3,2.8725703E3,4.362517E3,5.9128516E2,3.0204993E2,3.5061523E2,1.0575859E3,2.776543E2,5.5141387E3,7.8589856E2,9.093828E2,2.5572363E2,1.0727832E2,3.3597803E2,1.15859375E2,8.944824E0,2.282685E2,0E0,1.01264404E2,8.821466E1,5.1057156E1,8.665745E0,2.7901184E1,4.738159E1,0E0,0E0,0E0,0E0,0E0,0E0,0E0,0E0,0E0,0E0,0E0,0E0,0E0,0E0,0E0,0E0,0E0,0E0,0E0,0E0,0E0,0E0,0E0,0E0,0E0,0E0,0E0,0E0,0E0,0E0,0E0,0E0,0E0,0E0,0E0,0E0,0E0,0E0,0E0,0E0,0E0,0E0,0E0,0E0,0E0,0E0,0E0,0E0,0E0,0E0,0E0,0E0,0E0,0E0],"parents":[2147483647,0,0,1,1,2,2,3,3,4,4,5,5,6,6,7,7,8,8,9,9,10,10,11,11,12,12,13,13,14,14,15,15,16,16,17,17,18,18,19,19,20,20,21,21,22,22,23,23,24,24,27,27,28,28,29,29,30,30,31,31,32,32,33,33,34,34,35,35,36,36,37,37,38,38,39,39,40,40,41,41,42,42,43,43,44,44,45,45,46,46,47,47,48,48,49,49,50,50,51,51,53,53,54,54,55,55,56,56,57,57,58,58],"right_children":[2,4,6,8,10,12,14,16,18,20,22,24,26,28,30,32,34,36,38,40,42,44,46,48,50,-1,-1,52,54,56,58,60,62,64,66,68,70,72,74,76,78,80,82,84,86,88,90,92,94,96,98,100,-1,102,104,106,108,110,112,-1,-1,-1,-1,-1,-1,-1,-1,-1,-1,-1,-1,-1,-1,-1,-1,-1,-1,-1,-1,-1,-1,-1,-1,-1,-1,-1,-1,-1,-1,-1,-1,-1,-1,-1,-1,-1,-1,-1,-1,-1,-1,-1,-1,-1,-1,-1,-1,-1,-1,-1,-1,-1,-1],"split_conditions":[1.032933E-1,6E0,6E0,1.4660907E-1,3.379011E-2,6.421314E0,1.2E1,3E0,3E0,7E0,2E1,1.3307712E0,3.9625287E-2,7E0,1.4225999E0,2E0,1.0159646E-1,2E0,5E0,2E1,4.0861636E-1,1.1E1,1.1E1,1.5356541E-3,5E0,-1.8983845E-1,-1.6117844E-1,1.5E1,1.1E1,1.3500273E-2,2.2295713E-3,2E1,3.6674738E-4,4.2188168E-4,1.5998244E-2,2.5E1,4.1897735E-1,4E0,3.5248825E-1,3.6674738E-4,1.9081974E-1,2E1,1.1036083E0,9E0,1.4E1,9E0,5.3668797E-2,4.2770395E-1,2E0,1.9247532E-3,1.6373658E-1,1.5630186E-2,1.9361167E-1,1.4877722E0,1.5781522E-2,1.0795772E-2,1.709044E-3,1.3E1,1.5E1,-3.5595205E-2,8.825536E-2,4.1066504E-1,2.916777E-1,1.0815025E-3,1.1690184E-1,8.018192E-2,-7.557543E-2,-1.6583358E-1,5.636502E-2,2.0982149E-1,3.2916483E-2,-1.5236792E-1,-2.7115498E-2,-1.4070176E-1,-2.122824E-1,1.576141E-1,5.9643358E-2,2.7238956E-1,1.4897726E-1,3.1504962E-1,4.2989555E-1,1.8848382E-1,4.0999445E-1,6.753908E-2,2.855967E-1,4.2233146E-3,9.095935E-2,2.0073114E-1,3.5729188E-1,2.5296295E-1,1.6177423E-1,7.555765E-2,-2.6024017E-1,-2.2435473E-1,-1.05550304E-1,-2.646157E-1,-2.2685266E-1,-3.6020064E-1,-2.0594011E-1,-2.8181547E-1,-7.328466E-2,3.6320412E-1,1.7038763E-1,2.0052856E-2,-4.634634E-2,1.3210426E-2,1.15595214E-1,-1.4107495E-2,-7.861491E-2,-9.725054E-2,-2.5586193E-2,-1.5362494E-1,-2.1615697E-2],"split_indices":[5,9,9,1,5,0,9,9,9,9,8,1,7,9,1,9,1,9,9,8,0,9,9,6,9,0,0,8,9,7,6,8,6,6,5,8,1,9,0,6,0,8,0,9,9,9,5,0,9,6,5,7,0,0,7,7,6,9,8,0,0,0,0,0,0,0,0,0,0,0,0,0,0,0,0,0,0,0,0,0,0,0,0,0,0,0,0,0,0,0,0,0,0,0,0,0,0,0,0,0,0,0,0,0,0,0,0,0,0,0,0,0,0],"split_type":[0,0,0,0,0,0,0,0,0,0,0,0,0,0,0,0,0,0,0,0,0,0,0,0,0,0,0,0,0,0,0,0,0,0,0,0,0,0,0,0,0,0,0,0,0,0,0,0,0,0,0,0,0,0,0,0,0,0,0,0,0,0,0,0,0,0,0,0,0,0,0,0,0,0,0,0,0,0,0,0,0,0,0,0,0,0,0,0,0,0,0,0,0,0,0,0,0,0,0,0,0,0,0,0,0,0,0,0,0,0,0,0,0],"sum_hessian":[1.9392E4,1.4546E4,4.846E3,9.638E3,4.908E3,4.249E3,5.97E2,3.344E3,6.294E3,1.7E3,3.208E3,3.645E3,6.04E2,3.79E2,2.18E2,1.848E3,1.496E3,2.308E3,3.986E3,5.79E2,1.121E3,2.395E3,8.13E2,4.55E2,3.19E3,1.36E2,4.68E2,1.09E2,2.7E2,7.7E1,1.41E2,6.01E2,1.247E3,1.097E3,3.99E2,1.222E3,1.086E3,2.795E3,1.191E3,3.19E2,2.6E2,8.61E2,2.6E2,1.343E3,1.052E3,3.94E2,4.19E2,1.13E2,3.42E2,3.144E3,4.6E1,9.7E1,1.2E1,7.1E1,1.99E2,5E1,2.7E1,6.2E1,7.9E1,3.19E2,2.82E2,8.39E2,4.08E2,8.33E2,2.64E2,3.1E1,3.68E2,1.073E3,1.49E2,7.56E2,3.3E2,1.298E3,1.497E3,6.61E2,5.3E2,1.67E2,1.52E2,1.64E2,9.6E1,4.96E2,3.65E2,2.45E2,1.5E1,9.2E2,4.23E2,4.81E2,5.71E2,2.33E2,1.61E2,1.09E2,3.1E2,2E0,1.11E2,7.8E1,2.64E2,2.63E2,2.881E3,4E1,6E0,1.5E1,8.2E1,8E0,6.3E1,9.3E1,1.06E2,3E1,2E1,8E0,1.9E1,4E1,2.2E1,7.1E1,8E0],"tree_param":{"num_deleted":"0","num_feature":"10","num_nodes":"113","size_leaf_vector":"1"}},{"base_weights":[1.4807996E-3,1.2161288E0,-3.6097898E0,6.7839704E-2,3.4657657E0,-4.0774016E0,-2.7265188E-1,2.8968322E0,-1.1571368E0,5.060421E0,2.4361036E0,-4.215451E0,-3.1148276E0,-6.5037656E-1,1.1671048E0,5.420247E0,1.3821247E-1,3.062475E-1,-2.0969322E0,3.2895246E0,6.906917E0,2.861808E-1,2.896268E0,-3.2701712E0,-4.3853307E0,-1.8059231E-1,-3.0461457E0,-6.5419525E-2,-1.7519294E0,3.4552538E0,6.162943E-1,8.2067055E-1,7.4080296E0,-7.6297057E-1,1.1452779E0,-2.5245087E0,3.2922559E0,-1.5874562E0,-3.2451608E0,4.8856187E0,1.963035E0,5.98215E0,8.121788E0,2.483914E0,7.0181556E-2,4.639831E0,1.7003005E0,-4.4262357E0,-2.470367E0,-4.35419E0,-6.8290114E0,-1.4849354E-1,-1.6924563E-1,-2.019482E0,8.119391E-1,1.1302545E-1,-2.202242E0,-1.5114559E0,4.24152E0,-1.0533611E-1,1.7872701E0,-1.4753004E-2,9.939872E-2,4.476288E-1,3.4333158E-1,4.7706723E-2,-6.1114646E-2,1.2116889E-1,-5.3722538E-2,-1.52011905E-2,-1.6647516E-1,2.36744E-1,5.838999E-2,-1.415383E-1,-2.4476903E-2,-1.3199423E-1,-2.0363238E-1,1.7370394E-1,3.2100612E-1,8.0899894E-2,1.6526319E-1,3.493324E-1,2.6394147E-1,4.092875E-1,1.659833E-1,2.2832905E-1,1.0326572E-1,-2.8225195E-1,8.961069E-3,2.6974326E-1,7.9224735E-2,2.6988922E-2,1.5009974E-1,-5.2759625E-2,-2.3431006E-1,-1.03131406E-1,-1.5701975E-1,-2.4366187E-1,-2.142525E-1,-3.5834882E-1,-1.9076863E-1,-1.6125137E-1,-4.098843E-2,1.7970434E-1,-1.6541759E-2,6.204812E-2,-8.5501425E-2,-6.885791E-2,-1.6382194E-1,-1.4051679E-1,5.7129588E-2,2.3281777E-1,6.446894E-2,1.7995339E-2,-7.0932455E-2,8.047793E-3,1.2951952E-1],"categories":[],"categories_nodes":[],"categories_segments":[],"categories_sizes":[],"default_left":[0,0,0,0,0,0,0,0,0,0,0,0,0,0,0,0,0,0,0,0,0,0,0,0,0,0,0,0,0,0,0,0,0,0,0,0,0,0,0,0,0,0,0,0,0,0,0,0,0,0,0,0,0,0,0,0,0,0,0,0,0,0,0,0,0,0,0,0,0,0,0,0,0,0,0,0,0,0,0,0,0,0,0,0,0,0,0,0,0,0,0,0,0,0,0,0,0,0,0,0,0,0,0,0,0,0,0,0,0,0,0,0,0,0,0,0,0],"id":12,"left_children":[1,3,5,7,9,11,13,15,17,19,21,23,25,27,29,31,33,35,37,39,41,43,45,47,49,-1,51,53,55,57,59,61,63,65,67,69,71,73,75,77,79,81,83,85,87,89,91,93,95,97,99,-1,-1,101,103,105,107,109,111,113,115,-1,-1,-1,-1,-1,-1,-1,-1,-1,-1,-1,-1,-1,-1,-1,-1,-1,-1,-1,-1,-1,-1,-1,-1,-1,-1,-1,-1,-1,-1,-1,-1,-1,-1,-1,-1,-1,-1,-1,-1,-1,-1,-1,-1,-1,-1,-1,-1,-1,-1,-1,-1,-1,-1,-1,-1],"loss_changes":[8.4925305E4,3.7425297E4,7.6026914E3,3.3247582E4,8.0259336E3,5.540781E2,3.2700638E2,2.0179045E4,9.208333E3,6.254574E3,2.9440547E3,5.846797E2,6.765625E0,3.064195E2,1.5500548E2,1.3835535E4,1.2587767E3,2.214591E4,2.3793887E3,2.0688174E3,1.0049453E3,2.4926706E2,5.104498E3,5.1818604E2,2.0984375E2,0E0,1.7402344E0,5.366575E2,1.3902692E2,1.0040759E2,8.654765E1,5.972535E2,8.208242E2,5.785249E2,1.8609966E3,2.4027822E3,3.9014893E3,3.8559214E3,6.1565137E2,9.4058203E2,2.4331787E2,3.4127344E2,9.545703E1,3.0880157E1,2.9959476E2,2.290713E3,2.197524E3,1.9867188E2,8.616211E1,9.038672E1,1.0260132E1,0E0,0E0,1.3724374E2,6.8825854E2,6.993274E1,1.12900696E2,1.7166996E1,1.9119354E1,3.9721066E1,5.0246826E1,0E0,0E0,0E0,0E0,0E0,0E0,0E0,0E0,0E0,0E0,0E0,0E0,0E0,0E0,0E0,0E0,0E0,0E0,0E0,0E0,0E0,0E0,0E0,0E0,0E0,0E0,0E0,0E0,0E0,0E0,0E0,0E0,0E0,0E0,0E0,0E0,0E0,0E0,0E0,0E0,0E0,0E0,0E0,0E0,0E0,0E0,0E0,0E0,0E0,0E0,0E0,0E0,0E0,0E0,0E0,0E0],"parents":[2147483647,0,0,1,1,2,2,3,3,4,4,5,5,6,6,7,7,8,8,9,9,10,10,11,11,12,12,13,13,14,14,15,15,16,16,17,17,18,18,19,19,20,20,21,21,22,22,23,23,24,24,26,26,27,27,28,28,29,29,30,30,31,31,32,32,33,33,34,34,35,35,36,36,37,37,38,38,39,39,40,40,41,41,42,42,43,43,44,44,45,45,46,46,47,47,48,48,49,49,50,50,53,53,54,54,55,55,56,56,57,57,58,58,59,59,60,60],"right_children":[2,4,6,8,10,12,14,16,18,20,22,24,26,28,30,32,34,36,38,40,42,44,46,48,50,-1,52,54,56,58,60,62,64,66,68,70,72,74,76,78,80,82,84,86,88,90,92,94,96,98,100,-1,-1,102,104,106,108,110,112,114,116,-1,-1,-1,-1,-1,-1,-1,-1,-1,-1,-1,-1,-1,-1,-1,-1,-1,-1,-1,-1,-1,-1,-1,-1,-1,-1,-1,-1,-1,-1,-1,-1,-1,-1,-1,-1,-1,-1,-1,-1,-1,-1,-1,-1,-1,-1,-1,-1,-1,-1,-1,-1,-1,-1,-1,-1],"split_conditions":[1.032933E-1,6E0,6E0,1.457103E-1,4.1459888E-1,6.536416E0,1.5E1,3E0,3E0,7E0,7E0,1.6089779E0,2.8131425E-1,1.2E1,1.1E1,2E0,4E0,2E0,5E0,5.01113E-3,2E1,2.8979871E-3,1.1E1,6.334654E-2,5E0,-1.8059231E-1,2.5E1,7E0,1.460231E0,1.07771456E-1,2E1,2E1,8.273363E-3,1.0617018E-2,5E0,2.3311205E-1,1.9413373E-2,4E0,1.7445168E-2,2E1,2.5E1,1.9698296E-2,4.0861636E-1,3.914237E-4,9.855986E-3,6.334654E-2,1.5E1,7.283431E-1,1.348828E-1,1.4157422E-1,1.6373658E-1,-1.4849354E-1,-1.6924563E-1,1.4166822E-2,1.1E1,1.3500273E-2,2.4014115E-3,3.741136E-2,1.5765679E0,2.2032177E0,2.014637E-3,-1.4753004E-2,9.939872E-2,4.476288E-1,3.4333158E-1,4.7706723E-2,-6.1114646E-2,1.2116889E-1,-5.3722538E-2,-1.52011905E-2,-1.6647516E-1,2.36744E-1,5.838999E-2,-1.415383E-1,-2.4476903E-2,-1.3199423E-1,-2.0363238E-1,1.7370394E-1,3.2100612E-1,8.0899894E-2,1.6526319E-1,3.493324E-1,2.6394147E-1,4.092875E-1,1.659833E-1,2.2832905E-1,1.0326572E-1,-2.8225195E-1,8.961069E-3,2.6974326E-1,7.9224735E-2,2.6988922E-2,1.5009974E-1,-5.2759625E-2,-2.3431006E-1,-1.03131406E-1,-1.5701975E-1,-2.4366187E-1,-2.142525E-1,-3.5834882E-1,-1.9076863E-1,-1.6125137E-1,-4.098843E-2,1.7970434E-1,-1.6541759E-2,6.204812E-2,-8.5501425E-2,-6.885791E-2,-1.6382194E-1,-1.4051679E-1,5.7129588E-2,2.3281777E-1,6.446894E-2,1.7995339E-2,-7.0932455E-2,8.047793E-3,1.2951952E-1],"split_indices":[5,9,9,0,0,0,8,9,9,9,9,0,5,9,9,9,9,9,9,2,8,2,9,2,9,0,8,9,0,5,8,8,5,5,9,0,2,9,2,8,8,2,0,6,7,2,8,0,2,2,5,0,0,2,9,7,6,2,0,0,6,0,0,0,0,0,0,0,0,0,0,0,0,0,0,0,0,0,0,0,0,0,0,0,0,0,0,0,0,0,0,0,0,0,0,0,0,0,0,0,0,0,0,0,0,0,0,0,0,0,0,0,0,0,0,0,0],"split_type":[0,0,0,0,0,0,0,0,0,0,0,0,0,0,0,0,0,0,0,0,0,0,0,0,0,0,0,0,0,0,0,0,0,0,0,0,0,0,0,0,0,0,0,0,0,0,0,0,0,0,0,0,0,0,0,0,0,0,0,0,0,0,0,0,0,0,0,0,0,0,0,0,0,0,0,0,0,0,0,0,0,0,0,0,0,0,0,0,0,0,0,0,0,0,0,0,0,0,0,0,0,0,0,0,0,0,0,0,0,0,0,0,0,0,0,0,0],"sum_hessian":[1.9359E4,1.4487E4,4.872E3,9.592E3,4.895E3,4.273E3,5.99E2,2.898E3,6.694E3,1.919E3,2.976E3,3.734E3,5.39E2,4.75E2,1.24E2,1.513E3,1.385E3,2.618E3,4.076E3,9.81E2,9.38E2,5.25E2,2.451E3,5.72E2,3.162E3,5.9E1,4.8E2,3.11E2,1.64E2,2.3E1,1.01E2,4.57E2,1.056E3,7.31E2,6.54E2,1.344E3,1.274E3,2.825E3,1.251E3,4.44E2,5.37E2,5.36E2,4.02E2,4.6E1,4.79E2,9.96E2,1.455E3,2.32E2,3.4E2,3.125E3,3.7E1,4E2,8E1,9.6E1,2.15E2,3.2E1,1.32E2,3E0,2E1,6.3E1,3.8E1,2.34E2,2.23E2,2.7E2,7.86E2,1.54E2,5.77E2,4.15E2,2.39E2,3.58E2,9.86E2,7.58E2,5.16E2,1.324E3,1.501E3,7.25E2,5.26E2,2.33E2,2.11E2,4.29E2,1.08E2,2.17E2,3.19E2,3.96E2,6E0,6E0,4E1,8E0,4.71E2,7.98E2,1.98E2,7.7E2,6.85E2,1.7E1,2.15E2,2.14E2,1.26E2,3.59E2,2.766E3,3.2E1,5E0,4.7E1,4.9E1,6.2E1,1.53E2,2E1,1.2E1,7.6E1,5.6E1,2E0,1E0,1.7E1,3E0,4.7E1,1.6E1,1.3E1,2.5E1],"tree_param":{"num_deleted":"0","num_feature":"10","num_nodes":"117","size_leaf_vector":"1"}},{"base_weights":[-1.4279772E-2,1.1304926E0,-3.4411106E0,4.853223E-2,3.2466753E0,-3.883697E0,-3.174848E-1,2.6316974E0,-1.3115354E0,4.8946447E0,2.3729758E0,-4.047585E0,-3.1320872E0,8.807127E-1,-8.1692505E-1,4.6326203E0,1.10067375E-1,-2.06381E-1,-2.2086546E0,3.1167684E0,5.838798E0,1.7707894E0,4.125509E0,-2.9570026E0,-4.214113E0,-3.4739797E0,-2.8951702E0,-1.1110213E0,3.5959709E0,8.95346E-1,-1.0819649E0,4.4979295E-1,6.7084484E0,-2.5089428E-1,1.944543E0,1.5296686E0,-1.2333624E0,-1.4351622E0,-2.930388E0,5.444873E0,2.2497005E0,6.980911E0,4.3249674E0,2.3969405E0,9.46154E-1,6.3122206E0,3.5782292E0,-4.753524E0,-2.3305285E0,-4.1752687E0,-3.2983992E-1,-1.6557972E-1,-2.1772178E-1,-1.7191137E-1,-2.851882E0,-1.8307446E0,1.8196984E-1,6.7637916E0,3.1223478E0,1.471156E0,-3.5874605E-1,-4.229799E-1,-1.6839046E0,4.2523533E-2,-1.679589E-1,3.729315E-1,2.6848322E-1,1.2639344E-2,-7.056909E-2,1.2329586E-1,-7.83601E-2,-5.984102E-2,2.0297551E-1,-3.3090908E-2,-1.2267306E-1,-7.5353975E-3,-1.17711894E-1,-1.3235922E-1,-2.0769726E-1,2.1286933E-1,3.2276806E-1,5.5307835E-2,1.4880012E-1,3.0587536E-1,3.9444464E-1,2.4623291E-1,1.3946645E-1,5.6996662E-2,2.5634074E-1,-2.4866683E-3,8.9434296E-2,3.305301E-1,2.192399E-1,9.456545E-2,1.9643012E-1,-2.5188363E-1,-1.3648504E-1,-2.0256959E-1,-9.261819E-2,-2.0357625E-1,-2.2963381E-1,-1.3871491E-1,-1.586626E-1,-1.5808426E-1,-6.4046704E-3,8.2028404E-2,3.593312E-1,1.6925485E-1,5.0632436E-2,2.0702025E-2,1.4355668E-1,9.2950664E-2,-3.674475E-2,2.110435E-3,-7.371772E-2,-4.981382E-2,-1.1596563E-1],"categories":[],"categories_nodes":[],"categories_segments":[],"categories_sizes":[],"default_left":[0,0,0,0,0,0,0,0,0,0,0,0,0,0,0,0,0,0,0,0,0,0,0,0,0,0,0,0,0,0,0,0,0,0,0,0,0,0,0,0,0,0,0,0,0,0,0,0,0,0,0,0,0,0,0,0,0,0,0,0,0,0,0,0,0,0,0,0,0,0,0,0,0,0,0,0,0,0,0,0,0,0,0,0,0,0,0,0,0,0,0,0,0,0,0,0,0,0,0,0,0,0,0,0,0,0,0,0,0,0,0,0,0,0,0,0,0],"id":13,"left_children":[1,3,5,7,9,11,13,15,17,19,21,23,25,27,29,31,33,35,37,39,41,43,45,47,49,51,53,55,57,59,61,63,65,67,69,71,73,75,77,79,81,83,85,87,89,91,93,95,97,99,-1,-1,-1,-1,101,103,-1,105,107,109,111,113,115,-1,-1,-1,-1,-1,-1,-1,-1,-1,-1,-1,-1,-1,-1,-1,-1,-1,-1,-1,-1,-1,-1,-1,-1,-1,-1,-1,-1,-1,-1,-1,-1,-1,-1,-1,-1,-1,-1,-1,-1,-1,-1,-1,-1,-1,-1,-1,-1,-1,-1,-1,-1,-1,-1],"loss_changes":[7.648185E4,3.34601E4,6.747586E3,3.398051E4,7.106172E3,5.133203E2,3.6395892E2,1.6831096E4,6.281164E3,2.8546562E3,3.4040586E3,6.237383E2,5.1675293E1,9.722885E2,1.9567615E2,1.6146332E4,9.786903E2,5.065267E3,1.9475781E3,1.1900815E3,1.8999258E3,1.2407603E3,9.649336E2,5.149353E2,2.5274219E2,2.913501E1,4.025879E-1,3.6205655E2,9.191931E1,4.2521904E1,1.4663806E2,9.45779E2,1.2070469E3,7.223494E2,4.4887115E2,7.2889946E3,1.2428176E3,1.9944573E3,6.148252E2,1.6463623E2,3.584231E2,4.4815234E2,4.30292E2,4.6877812E3,8.7373145E2,6.4231445E1,3.838545E2,5.447998E1,2.7908167E2,1.1008984E2,0E0,0E0,0E0,0E0,1.3977051E0,2.0548364E2,0E0,6.823517E0,3.382617E1,5.7680237E1,1.7103716E1,8.775209E1,8.212109E1,0E0,0E0,0E0,0E0,0E0,0E0,0E0,0E0,0E0,0E0,0E0,0E0,0E0,0E0,0E0,0E0,0E0,0E0,0E0,0E0,0E0,0E0,0E0,0E0,0E0,0E0,0E0,0E0,0E0,0E0,0E0,0E0,0E0,0E0,0E0,0E0,0E0,0E0,0E0,0E0,0E0,0E0,0E0,0E0,0E0,0E0,0E0,0E0,0E0,0E0,0E0,0E0,0E0,0E0],"parents":[2147483647,0,0,1,1,2,2,3,3,4,4,5,5,6,6,7,7,8,8,9,9,10,10,11,11,12,12,13,13,14,14,15,15,16,16,17,17,18,18,19,19,20,20,21,21,22,22,23,23,24,24,25,25,26,26,27,27,28,28,29,29,30,30,31,31,32,32,33,33,34,34,35,35,36,36,37,37,38,38,39,39,40,40,41,41,42,42,43,43,44,44,45,45,46,46,47,47,48,48,49,49,54,54,55,55,57,57,58,58,59,59,60,60,61,61,62,62],"right_children":[2,4,6,8,10,12,14,16,18,20,22,24,26,28,30,32,34,36,38,40,42,44,46,48,50,52,54,56,58,60,62,64,66,68,70,72,74,76,78,80,82,84,86,88,90,92,94,96,98,100,-1,-1,-1,-1,102,104,-1,106,108,110,112,114,116,-1,-1,-1,-1,-1,-1,-1,-1,-1,-1,-1,-1,-1,-1,-1,-1,-1,-1,-1,-1,-1,-1,-1,-1,-1,-1,-1,-1,-1,-1,-1,-1,-1,-1,-1,-1,-1,-1,-1,-1,-1,-1,-1,-1,-1,-1,-1,-1,-1,-1,-1,-1,-1,-1],"split_conditions":[1.032933E-1,6E0,6E0,1.4384751E-1,3.379011E-2,6.204776E0,1.1E1,3E0,2.7620065E-1,7E0,2E1,1.3097379E0,6.685659E0,7E0,1.3028649E0,2E0,5.540848E-4,3E0,1.4840364E-2,2.5842555E-3,2.7365324E-1,1.1E1,8.764832E-3,1.514554E-3,5E0,3.491333E-1,3.8772345E-2,1.5E1,1.4877722E0,1.3500273E-2,1.2E1,2.9778088E-2,8.875525E-2,1.943326E-2,5E0,2E0,5E0,3E0,5E0,2E1,1.5E1,2E1,5.0811145E-2,9E0,1.4E1,7.086837E-2,7E0,5.8477275E-2,2E0,1.3592064E-2,-3.2983992E-1,-1.6557972E-1,-2.1772178E-1,-1.7191137E-1,2.5E1,1.6953683E-2,1.8196984E-1,1.2722172E0,3.2178993E0,1.0750294E-2,9.5509195E-1,9.112816E-2,2.134204E-3,4.2523533E-2,-1.679589E-1,3.729315E-1,2.6848322E-1,1.2639344E-2,-7.056909E-2,1.2329586E-1,-7.83601E-2,-5.984102E-2,2.0297551E-1,-3.3090908E-2,-1.2267306E-1,-7.5353975E-3,-1.17711894E-1,-1.3235922E-1,-2.0769726E-1,2.1286933E-1,3.2276806E-1,5.5307835E-2,1.4880012E-1,3.0587536E-1,3.9444464E-1,2.4623291E-1,1.3946645E-1,5.6996662E-2,2.5634074E-1,-2.4866683E-3,8.9434296E-2,3.305301E-1,2.192399E-1,9.456545E-2,1.9643012E-1,-2.5188363E-1,-1.3648504E-1,-2.0256959E-1,-9.261819E-2,-2.0357625E-1,-2.2963381E-1,-1.3871491E-1,-1.586626E-1,-1.5808426E-1,-6.4046704E-3,8.2028404E-2,3.593312E-1,1.6925485E-1,5.0632436E-2,2.0702025E-2,1.4355668E-1,9.2950664E-2,-3.674475E-2,2.110435E-3,-7.371772E-2,-4.981382E-2,-1.1596563E-1],"split_indices":[5,9,9,1,5,0,9,9,1,9,8,1,0,9,0,9,6,9,7,2,0,9,2,6,9,2,7,8,0,7,9,2,1,5,9,9,9,9,9,8,8,8,2,9,9,5,9,2,9,6,0,0,0,0,8,2,0,0,1,7,0,2,6,0,0,0,0,0,0,0,0,0,0,0,0,0,0,0,0,0,0,0,0,0,0,0,0,0,0,0,0,0,0,0,0,0,0,0,0,0,0,0,0,0,0,0,0,0,0,0,0,0,0,0,0,0,0],"split_type":[0,0,0,0,0,0,0,0,0,0,0,0,0,0,0,0,0,0,0,0,0,0,0,0,0,0,0,0,0,0,0,0,0,0,0,0,0,0,0,0,0,0,0,0,0,0,0,0,0,0,0,0,0,0,0,0,0,0,0,0,0,0,0,0,0,0,0,0,0,0,0,0,0,0,0,0,0,0,0,0,0,0,0,0,0,0,0,0,0,0,0,0,0,0,0,0,0,0,0,0,0,0,0,0,0,0,0,0,0,0,0,0,0,0,0,0,0],"sum_hessian":[1.9494E4,1.4613E4,4.881E3,9.67E3,4.943E3,4.275E3,6.06E2,3.335E3,6.335E3,1.711E3,3.232E3,3.506E3,7.69E2,1.78E2,4.28E2,1.859E3,1.476E3,2.839E3,3.496E3,5.95E2,1.116E3,2.407E3,8.25E2,4.67E2,3.039E3,3.09E2,4.6E2,1.03E2,7.5E1,5.7E1,3.71E2,6.17E2,1.242E3,1.234E3,2.42E2,1.055E3,1.784E3,1.689E3,1.807E3,1.6E2,4.35E2,6.34E2,4.82E2,1.367E3,1.04E3,1.63E2,6.62E2,1.19E2,3.48E2,2.993E3,4.6E1,2.65E2,4.4E1,2.8E1,4.32E2,9E1,1.3E1,8E0,6.7E1,3.9E1,1.8E1,1.78E2,1.93E2,5.59E2,5.8E1,7.93E2,4.49E2,8.61E2,3.73E2,2.11E2,3.1E1,5.08E2,5.47E2,1.216E3,5.68E2,7.05E2,9.84E2,1.47E3,3.37E2,7.6E1,8.4E1,1.7E2,2.65E2,3.29E2,3.05E2,3.45E2,1.37E2,9.37E2,4.3E2,4.77E2,5.63E2,1.39E2,2.4E1,1.15E2,5.47E2,1.03E2,1.6E1,7.4E1,2.74E2,2.406E3,5.87E2,3.56E2,7.6E1,5E1,4E1,1E0,7E0,5.9E1,8E0,2.3E1,1.6E1,2E0,1.6E1,1.24E2,5.4E1,9.4E1,9.9E1],"tree_param":{"num_deleted":"0","num_feature":"10","num_nodes":"117","size_leaf_vector":"1"}},{"base_weights":[1.1744905E-2,1.5927348E0,-2.3201134E0,3.6794488E0,6.697094E-1,-3.1507757E-1,-3.3890202E0,6.665064E0,3.1403086E0,2.008175E-1,2.0371833E0,1.4982847E0,-9.699462E-1,-2.3491025E0,-3.72217E0,8.462536E0,5.3368545E0,4.0237246E0,1.8432345E0,1.4341872E0,-1.7329438E-1,2.2047517E0,-2.961259E0,4.8132925E0,1.1976869E0,-2.802572E-1,-1.5517201E0,8.306607E-1,-2.5162551E0,-3.887945E0,-2.9426527E0,9.4084215E0,4.0190098E-1,2.5601568E0,5.8507214E0,6.5400853E0,3.786452E0,1.3741698E0,3.2563803E0,2.7111979E0,7.1011585E-1,3.8044843E-1,-9.5436144E-1,1.6433833E0,3.5701923E0,-3.9079523E0,-2.4419434E0,4.9825625E0,-3.0361937E-2,3.8576967E-1,2.0105834E0,-5.851113E-1,2.093515E0,-1.8034645E0,4.4128987E-1,-1.1262596E-2,3.7853396E0,-1.6999564E0,-2.787247E0,-1.7345201E0,-3.931335E0,-3.2999218E0,-1.3679959E-1,5.116182E-1,3.8384092E-1,4.6106367E-3,2.559565E-1,2.0939563E-1,3.3926362E-1,2.248733E-1,3.6233905E-1,-1.2982927E-2,2.1090308E-1,1.0248404E-1,3.241441E-2,1.4013283E-1,3.447229E-1,1.8454753E-1,1.1305525E-1,9.969145E-3,1.05107985E-1,1.07766464E-1,6.264449E-3,3.8719475E-3,-9.894001E-2,2.9258895E-1,6.570622E-2,2.7571854E-1,1.4738338E-1,-9.463619E-2,-2.0606332E-1,-0E0,-1.2768325E-1,2.0830548E-1,3.1089637E-1,1.816803E-2,-2.2945175E-2,3.803481E-2,-3.2110237E-2,6.2997475E-2,1.5307038E-1,-1.1206024E-2,-9.3040854E-2,2.665684E-1,5.068968E-2,-1.0564345E-1,-6.034068E-2,2.6294002E-1,-1.1240068E-2,-3.0984685E-2,1.4091115E-1,2.9954022E-1,-6.81329E-2,-6.682428E-2,-1.5164796E-1,-1.5395235E-1,-8.804852E-2,9.4752796E-2,-1.1394676E-1,-1.5557288E-1,-1.9941102E-1,-1.5975887E-1,-1.9600391E-1],"categories":[],"categories_nodes":[],"categories_segments":[],"categories_sizes":[],"default_left":[0,0,0,0,0,0,0,0,0,0,0,0,0,0,0,0,0,0,0,0,0,0,0,0,0,0,0,0,0,0,0,0,0,0,0,0,0,0,0,0,0,0,0,0,0,0,0,0,0,0,0,0,0,0,0,0,0,0,0,0,0,0,0,0,0,0,0,0,0,0,0,0,0,0,0,0,0,0,0,0,0,0,0,0,0,0,0,0,0,0,0,0,0,0,0,0,0,0,0,0,0,0,0,0,0,0,0,0,0,0,0,0,0,0,0,0,0,0,0,0,0,0,0],"id":14,"left_children":[1,3,5,7,9,11,13,15,17,19,21,23,25,27,29,31,33,35,37,39,41,43,45,47,49,51,53,55,57,59,61,63,-1,65,67,69,71,73,75,77,79,81,83,85,87,89,91,93,95,97,99,101,103,105,107,109,111,113,115,117,119,121,-1,-1,-1,-1,-1,-1,-1,-1,-1,-1,-1,-1,-1,-1,-1,-1,-1,-1,-1,-1,-1,-1,-1,-1,-1,-1,-1,-1,-1,-1,-1,-1,-1,-1,-1,-1,-1,-1,-1,-1,-1,-1,-1,-1,-1,-1,-1,-1,-1,-1,-1,-1,-1,-1,-1,-1,-1,-1,-1,-1,-1],"loss_changes":[7.1734664E4,2.2332037E4,1.6848375E4,5.7020586E3,5.1552354E3,3.2492515E3,1.7672344E3,1.2498242E3,3.4456055E3,2.7638083E3,1.7260068E3,7.170814E2,8.058806E2,6.6504736E2,4.8952734E2,1.4583984E1,4.3363867E2,1.0441426E3,8.0573584E2,1.2866904E3,1.9882375E3,1.5166777E3,2.2761414E1,4.983972E1,4.392079E2,6.675596E2,5.4781665E2,1.5713966E2,2.5694727E2,2.9142188E2,4.094336E1,1.2395508E1,0E0,3.2109244E2,3.8229102E2,1.8709033E2,2.8654883E3,4.4951514E2,4.8151514E2,2.1331299E2,6.3281836E2,1.2177427E3,2.0160732E3,1.9453618E3,6.8245264E2,1.0554504E0,1.2630981E1,3.1556885E1,6.8248117E-1,1.2961436E2,2.5837585E2,3.7561774E2,3.610384E2,1.7581738E2,3.9638046E2,8.760393E1,1.6757841E2,1.3989288E2,2.600205E2,1.3279686E2,1.3305078E2,2.74292E0,0E0,0E0,0E0,0E0,0E0,0E0,0E0,0E0,0E0,0E0,0E0,0E0,0E0,0E0,0E0,0E0,0E0,0E0,0E0,0E0,0E0,0E0,0E0,0E0,0E0,0E0,0E0,0E0,0E0,0E0,0E0,0E0,0E0,0E0,0E0,0E0,0E0,0E0,0E0,0E0,0E0,0E0,0E0,0E0,0E0,0E0,0E0,0E0,0E0,0E0,0E0,0E0,0E0,0E0,0E0,0E0,0E0,0E0,0E0,0E0,0E0],"parents":[2147483647,0,0,1,1,2,2,3,3,4,4,5,5,6,6,7,7,8,8,9,9,10,10,11,11,12,12,13,13,14,14,15,15,16,16,17,17,18,18,19,19,20,20,21,21,22,22,23,23,24,24,25,25,26,26,27,27,28,28,29,29,30,30,31,31,33,33,34,34,35,35,36,36,37,37,38,38,39,39,40,40,41,41,42,42,43,43,44,44,45,45,46,46,47,47,48,48,49,49,50,50,51,51,52,52,53,53,54,54,55,55,56,56,57,57,58,58,59,59,60,60,61,61],"right_children":[2,4,6,8,10,12,14,16,18,20,22,24,26,28,30,32,34,36,38,40,42,44,46,48,50,52,54,56,58,60,62,64,-1,66,68,70,72,74,76,78,80,82,84,86,88,90,92,94,96,98,100,102,104,106,108,110,112,114,116,118,120,122,-1,-1,-1,-1,-1,-1,-1,-1,-1,-1,-1,-1,-1,-1,-1,-1,-1,-1,-1,-1,-1,-1,-1,-1,-1,-1,-1,-1,-1,-1,-1,-1,-1,-1,-1,-1,-1,-1,-1,-1,-1,-1,-1,-1,-1,-1,-1,-1,-1,-1,-1,-1,-1,-1,-1,-1,-1,-1,-1,-1,-1],"split_conditions":[1.1196704E-1,2.5384247E-2,1.5178323E-2,1.0691836E-3,2E1,1.1858553E-1,1.0925323E0,1.2333572E-2,5.9855513E-2,9.716511E-3,2.2651613E0,4.495127E-2,1.0208666E-2,1.709043E-1,2.6962793E-1,6.2453747E-3,6.389338E-2,4.4728633E-2,2.5E1,5.0254956E-2,7.011105E-2,7.6047283E-1,2.9300854E0,3.7286147E-3,2E1,8.9351195E-1,2.5E1,1.6246371E-1,1.3063252E-1,1.096164E-1,6.685659E0,4.284252E-2,4.0190098E-1,7.202691E-2,1.5E1,2.0049876E-3,7.9380766E-2,8.2478374E-2,1.2263192E-2,3.1918168E-2,6.13732E-1,3.379011E-2,2.2895208E-2,1.763227E-3,1.6953683E-2,2.4281912E0,2.5749441E-2,2.9811263E-3,3.7862223E-2,6.9863796E-3,5.4744724E-3,2.7094823E-1,1.9078037E-2,2.9778088E-2,2.7082134E-3,1.6813995E-1,1.6203332E-1,4.9211215E-2,8.678131E-2,8.409738E-3,2.0103037E-2,3.4532484E-1,